{"learner":{"attributes":{"scikit_learn":"{\"_estimator_type\": \"regressor\"}"},"feature_names":[],"feature_types":[],"gradient_booster":{"model":{"gbtree_model_param":{"num_parallel_tree":"43","num_trees":"43"},"iteration_indptr":[0,43],"tree_info":[0,0,0,0,0,0,0,0,0,0,0,0,0,0,0,0,0,0,0,0,0,0,0,0,0,0,0,0,0,0,0,0,0,0,0,0,0,0,0,0,0,0,0],"trees":[{"base_weights":[1.5874575E0,3.1306338E-2,1.8019861E0,-9.5604163E-1,5.0666475E-1,1.555778E0,2.1832852E0,-1.1908584E0,-7.343076E-1,2.4004091E-1,7.4500716E-1,1.2881933E0,1.6998204E0,2.0488622E0,2.4846716E0,-3.1421654E-2,-2.4683692E-2,-7.9452044E-1,-5.0104374E-1,-1.07744664E-1,2.7866453E-1,5.975696E-1,7.999371E-1,1.1646708E0,1.3812226E0,3.721436E-2,1.763307E0,4.550189E-2,2.130998E0,5.492293E-2,6.1817557E-2,-2.006997E-2,-1.6555846E-2,-1.1986482E-2,-6.9800187E-3,-9.109615E-3,-1.5259399E-3,5.385397E-3,1.0291338E-2,1.1992467E-2,1.4873854E-2,1.7439343E-2,1.9681374E-2,2.5192197E-2,2.8232167E-2,3.0739928E-2,3.3177663E-2,4.0019203E-2,4.2216487E-2,4.8481785E-2,5.1072177E-2],"categories":[],"categories_nodes":[],"categories_segments":[],"categories_sizes":[],"default_left":[0,0,0,0,0,0,0,0,0,0,0,0,0,0,0,0,0,0,0,0,0,0,0,0,0,0,0,0,0,0,0,0,0,0,0,0,0,0,0,0,0,0,0,0,0,0,0,0,0,0,0],"id":0,"left_children":[1,3,5,7,9,11,13,15,17,19,21,23,25,27,29,-1,-1,31,33,35,37,39,41,43,45,-1,47,-1,49,-1,-1,-1,-1,-1,-1,-1,-1,-1,-1,-1,-1,-1,-1,-1,-1,-1,-1,-1,-1,-1,-1],"loss_changes":[4.0724434E3,6.946445E2,1.0030781E3,2.4169708E1,6.330539E1,2.4903711E2,1.6522656E2,3.3796387E0,3.113266E0,6.383711E0,3.7900085E0,2.4648682E1,2.3952148E1,1.7910156E1,2.1287598E1,0E0,0E0,5.003433E-1,1.253128E-3,5.485404E-1,3.1848412E0,1.7586899E-1,2.4937439E-1,2.651123E0,1.6162109E0,0E0,2.5664062E0,0E0,3.173828E-2,0E0,0E0,0E0,0E0,0E0,0E0,0E0,0E0,0E0,0E0,0E0,0E0,0E0,0E0,0E0,0E0,0E0,0E0,0E0,0E0,0E0,0E0],"parents":[2147483647,0,0,1,1,2,2,3,3,4,4,5,5,6,6,7,7,8,8,9,9,10,10,11,11,12,12,13,13,14,14,17,17,18,18,19,19,20,20,21,21,22,22,23,23,24,24,26,26,28,28],"right_children":[2,4,6,8,10,12,14,16,18,20,22,24,26,28,30,-1,-1,32,34,36,38,40,42,44,46,-1,48,-1,50,-1,-1,-1,-1,-1,-1,-1,-1,-1,-1,-1,-1,-1,-1,-1,-1,-1,-1,-1,-1,-1,-1],"split_conditions":[9.477894E-1,-3.4249032E-1,1.8687205E0,-9.1629076E-1,5.187938E-1,1.4951488E0,2.2679937E0,-1.2039728E0,-6.1618614E-1,8.61777E-2,7.030975E-1,1.2753628E0,1.6826884E0,2.0425181E0,2.508786E0,-3.1421654E-2,-2.4683692E-2,-7.765288E-1,-3.5667494E-1,-3.7106368E-1,3.6464313E-1,5.877867E-1,8.020016E-1,1.1474024E0,1.3737155E0,3.721436E-2,1.7715567E0,4.550189E-2,2.1435893E0,5.492293E-2,6.1817557E-2,-2.006997E-2,-1.6555846E-2,-1.1986482E-2,-6.9800187E-3,-9.109615E-3,-1.5259399E-3,5.385397E-3,1.0291338E-2,1.1992467E-2,1.4873854E-2,1.7439343E-2,1.9681374E-2,2.5192197E-2,2.8232167E-2,3.0739928E-2,3.3177663E-2,4.0019203E-2,4.2216487E-2,4.8481785E-2,5.1072177E-2],"split_indices":[5,2,5,0,0,5,5,0,5,5,5,5,5,5,5,0,0,5,0,5,5,5,5,5,5,0,0,0,5,0,0,0,0,0,0,0,0,0,0,0,0,0,0,0,0,0,0,0,0,0,0],"split_type":[0,0,0,0,0,0,0,0,0,0,0,0,0,0,0,0,0,0,0,0,0,0,0,0,0,0,0,0,0,0,0,0,0,0,0,0,0,0,0,0,0,0,0,0,0,0,0,0,0,0,0],"sum_hessian":[1.2198E4,1.478E3,1.072E4,4.8E2,9.98E2,6.517E3,4.203E3,2.31E2,2.49E2,4.72E2,5.26E2,2.284E3,4.233E3,2.912E3,1.291E3,9.9E1,1.32E2,1.96E2,5.3E1,4.7E1,4.25E2,1.46E2,3.8E2,9.87E2,1.297E3,1.658E3,2.575E3,1.383E3,1.529E3,7.64E2,5.27E2,1.02E2,9.4E1,4.8E1,5E0,5E0,4.2E1,3.32E2,9.3E1,5.4E1,9.2E1,1.91E2,1.89E2,3.81E2,6.06E2,5.75E2,7.22E2,1.436E3,1.139E3,9.13E2,6.16E2],"tree_param":{"num_deleted":"0","num_feature":"11","num_nodes":"51","size_leaf_vector":"1"}},{"base_weights":[1.5874575E0,3.1306338E-2,1.8019861E0,-9.5667696E-1,5.069707E-1,1.5559406E0,2.1830332E0,-1.2358583E0,-7.6529557E-1,2.3931013E-1,7.472067E-1,1.2884346E0,1.6999404E0,2.0484986E0,2.4846716E0,-3.179663E-2,-2.5790764E-2,-8.583259E-1,-5.974668E-1,-1.0362191E-1,2.7640942E-1,6.036687E-1,7.9973495E-1,1.1649795E0,1.3814124E0,1.5998851E0,1.7637182E0,4.536136E-2,2.124408E0,5.492293E-2,6.1817557E-2,-2.1406427E-2,-1.8193984E-2,-1.5783032E-2,-1.1783787E-2,-4.6406765E-3,1.1981554E-4,5.369557E-3,1.0082166E-2,1.2270229E-2,1.486782E-2,1.7436069E-2,1.9681374E-2,2.5192197E-2,2.8243849E-2,3.072762E-2,3.319539E-2,3.5838228E-2,3.7806813E-2,4.000643E-2,4.2254202E-2,4.820179E-2,5.088073E-2],"categories":[],"categories_nodes":[],"categories_segments":[],"categories_sizes":[],"default_left":[0,0,0,0,0,0,0,0,0,0,0,0,0,0,0,0,0,0,0,0,0,0,0,0,0,0,0,0,0,0,0,0,0,0,0,0,0,0,0,0,0,0,0,0,0,0,0,0,0,0,0,0,0],"id":1,"left_children":[1,3,5,7,9,11,13,15,17,19,21,23,25,27,29,-1,-1,31,33,35,37,39,41,43,45,47,49,-1,51,-1,-1,-1,-1,-1,-1,-1,-1,-1,-1,-1,-1,-1,-1,-1,-1,-1,-1,-1,-1,-1,-1,-1,-1],"loss_changes":[4.0724434E3,6.9553876E2,1.00175E3,2.475409E1,6.405859E1,2.4888867E2,1.6551367E2,1.7173767E0,3.9837494E0,6.059122E0,3.4831543E0,2.461914E1,2.419629E1,1.7518555E1,2.1287598E1,0E0,0E0,1.4408875E-1,4.3737411E-1,4.91444E-1,2.960968E0,5.577469E-2,2.5457764E-1,2.6811523E0,1.7028809E0,1.4160156E-2,2.8295898E0,0E0,8.1640625E-1,0E0,0E0,0E0,0E0,0E0,0E0,0E0,0E0,0E0,0E0,0E0,0E0,0E0,0E0,0E0,0E0,0E0,0E0,0E0,0E0,0E0,0E0,0E0,0E0],"parents":[2147483647,0,0,1,1,2,2,3,3,4,4,5,5,6,6,7,7,8,8,9,9,10,10,11,11,12,12,13,13,14,14,17,17,18,18,19,19,20,20,21,21,22,22,23,23,24,24,25,25,26,26,28,28],"right_children":[2,4,6,8,10,12,14,16,18,20,22,24,26,28,30,-1,-1,32,34,36,38,40,42,44,46,48,50,-1,52,-1,-1,-1,-1,-1,-1,-1,-1,-1,-1,-1,-1,-1,-1,-1,-1,-1,-1,-1,-1,-1,-1,-1,-1],"split_conditions":[9.477894E-1,-3.5667494E-1,1.8687205E0,-9.9425226E-1,5.187938E-1,1.4951488E0,2.2679937E0,-1.2378744E0,-7.133499E-1,8.61777E-2,7.030975E-1,1.2753628E0,1.6826884E0,2.0320878E0,2.508786E0,-3.179663E-2,-2.5790764E-2,-8.4397006E-1,-6.1618614E-1,-1.3387081E-2,3.6464313E-1,5.877867E-1,8.020016E-1,1.1474024E0,1.3737155E0,1.5830939E0,1.7715567E0,4.536136E-2,2.1294215E0,5.492293E-2,6.1817557E-2,-2.1406427E-2,-1.8193984E-2,-1.5783032E-2,-1.1783787E-2,-4.6406765E-3,1.1981554E-4,5.369557E-3,1.0082166E-2,1.2270229E-2,1.486782E-2,1.7436069E-2,1.9681374E-2,2.5192197E-2,2.8243849E-2,3.072762E-2,3.319539E-2,3.5838228E-2,3.7806813E-2,4.000643E-2,4.2254202E-2,4.820179E-2,5.088073E-2],"split_indices":[5,0,1,5,5,0,5,5,5,0,5,0,5,1,5,0,0,5,5,6,5,5,5,5,5,5,5,0,5,0,0,0,0,0,0,0,0,0,0,0,0,0,0,0,0,0,0,0,0,0,0,0,0],"split_type":[0,0,0,0,0,0,0,0,0,0,0,0,0,0,0,0,0,0,0,0,0,0,0,0,0,0,0,0,0,0,0,0,0,0,0,0,0,0,0,0,0,0,0,0,0,0,0,0,0,0,0,0,0],"sum_hessian":[1.2198E4,1.478E3,1.072E4,4.8E2,9.98E2,6.517E3,4.203E3,1.93E2,2.87E2,4.73E2,5.25E2,2.284E3,4.233E3,2.912E3,1.291E3,9E1,1.03E2,1.82E2,1.05E2,4.6E1,4.27E2,1.44E2,3.81E2,9.87E2,1.297E3,1.658E3,2.575E3,1.283E3,1.629E3,7.64E2,5.27E2,9.4E1,8.8E1,5.2E1,5.3E1,2.4E1,2.2E1,3.33E2,9.4E1,5.1E1,9.3E1,1.92E2,1.89E2,3.81E2,6.06E2,5.75E2,7.22E2,5.24E2,1.134E3,1.436E3,1.139E3,9.16E2,7.13E2],"tree_param":{"num_deleted":"0","num_feature":"11","num_nodes":"53","size_leaf_vector":"1"}},{"base_weights":[1.5874575E0,3.268314E-2,1.8021262E0,-9.6092564E-1,5.057034E-1,1.555933E0,2.1832852E0,-1.2358583E0,-7.7040684E-1,2.3604578E-1,7.4835676E-1,1.2888851E0,1.6995596E0,2.0488622E0,2.4846716E0,-3.179663E-2,-2.5790764E-2,-8.549857E-1,-6.1498606E-1,-1.13350436E-1,2.7540326E-1,1.4038807E-2,8.0104274E-1,1.1649019E0,1.3820736E0,3.7131965E-2,1.7615125E0,4.550189E-2,2.130998E0,5.492293E-2,6.1817557E-2,-2.1406427E-2,-1.8013252E-2,-1.6031204E-2,-1.21138375E-2,-7.2799684E-3,-1.4091771E-3,5.3427527E-3,1.0082166E-2,1.7719842E-2,1.9928897E-2,2.5196167E-2,2.8232167E-2,3.0739928E-2,3.3213194E-2,3.997106E-2,4.223259E-2,4.8481785E-2,5.1072177E-2],"categories":[],"categories_nodes":[],"categories_segments":[],"categories_sizes":[],"default_left":[0,0,0,0,0,0,0,0,0,0,0,0,0,0,0,0,0,0,0,0,0,0,0,0,0,0,0,0,0,0,0,0,0,0,0,0,0,0,0,0,0,0,0,0,0,0,0,0,0],"id":2,"left_children":[1,3,5,7,9,11,13,15,17,19,21,23,25,27,29,-1,-1,31,33,35,37,-1,39,41,43,-1,45,-1,47,-1,-1,-1,-1,-1,-1,-1,-1,-1,-1,-1,-1,-1,-1,-1,-1,-1,-1,-1,-1],"loss_changes":[4.071498E3,6.965516E2,1.00246094E3,2.408548E1,6.55184E1,2.4773145E2,1.6522656E2,1.7173767E0,3.2206268E0,6.590618E0,3.5414124E0,2.4767334E1,2.4175781E1,1.7910156E1,2.1287598E1,0E0,0E0,2.4551392E-1,3.6853027E-1,4.9723262E-1,2.9981995E0,0E0,1.8611145E-1,2.6273193E0,1.7172852E0,0E0,3.0131836E0,0E0,3.173828E-2,0E0,0E0,0E0,0E0,0E0,0E0,0E0,0E0,0E0,0E0,0E0,0E0,0E0,0E0,0E0,0E0,0E0,0E0,0E0,0E0],"parents":[2147483647,0,0,1,1,2,2,3,3,4,4,5,5,6,6,7,7,8,8,9,9,10,10,11,11,12,12,13,13,14,14,17,17,18,18,19,19,20,20,22,22,23,23,24,24,26,26,28,28],"right_children":[2,4,6,8,10,12,14,16,18,20,22,24,26,28,30,-1,-1,32,34,36,38,-1,40,42,44,-1,46,-1,48,-1,-1,-1,-1,-1,-1,-1,-1,-1,-1,-1,-1,-1,-1,-1,-1,-1,-1,-1,-1],"split_conditions":[9.516579E-1,-3.7106368E-1,1.8687205E0,-9.9425226E-1,5.187938E-1,1.4951488E0,2.2679937E0,-1.2378744E0,-7.133499E-1,8.61777E-2,7.030975E-1,1.2753628E0,1.678964E0,2.0425181E0,2.508786E0,-3.179663E-2,-2.5790764E-2,-8.4397006E-1,-6.1618614E-1,-3.4249032E-1,3.6464313E-1,1.4038807E-2,8.197798E-1,1.1474024E0,1.3737155E0,3.7131965E-2,1.7715567E0,4.550189E-2,2.1435893E0,5.492293E-2,6.1817557E-2,-2.1406427E-2,-1.8013252E-2,-1.6031204E-2,-1.21138375E-2,-7.2799684E-3,-1.4091771E-3,5.3427527E-3,1.0082166E-2,1.7719842E-2,1.9928897E-2,2.5196167E-2,2.8232167E-2,3.0739928E-2,3.3213194E-2,3.997106E-2,4.223259E-2,4.8481785E-2,5.1072177E-2],"split_indices":[0,5,5,5,5,1,5,5,0,1,5,5,5,5,5,0,0,5,5,4,5,0,0,5,5,0,5,0,5,0,0,0,0,0,0,0,0,0,0,0,0,0,0,0,0,0,0,0,0],"split_type":[0,0,0,0,0,0,0,0,0,0,0,0,0,0,0,0,0,0,0,0,0,0,0,0,0,0,0,0,0,0,0,0,0,0,0,0,0,0,0,0,0,0,0,0,0,0,0,0,0],"sum_hessian":[1.2198E4,1.48E3,1.0718E4,4.77E2,1.003E3,6.515E3,4.203E3,1.93E2,2.84E2,4.76E2,5.27E2,2.282E3,4.233E3,2.912E3,1.291E3,9E1,1.03E2,1.81E2,1.03E2,4.8E1,4.28E2,1.44E2,3.83E2,9.85E2,1.297E3,1.601E3,2.632E3,1.383E3,1.529E3,7.64E2,5.27E2,9.4E1,8.7E1,5.4E1,4.9E1,9E0,3.9E1,3.34E2,9.4E1,2.34E2,1.49E2,3.79E2,6.06E2,5.75E2,7.22E2,1.493E3,1.139E3,9.13E2,6.16E2],"tree_param":{"num_deleted":"0","num_feature":"11","num_nodes":"49","size_leaf_vector":"1"}},{"base_weights":[1.5874575E0,3.1306338E-2,1.8019861E0,-9.5604163E-1,5.0666475E-1,1.555778E0,2.1832852E0,-1.2358583E0,-7.642345E-1,2.3866542E-1,7.472067E-1,1.2881933E0,1.6998204E0,2.0488622E0,2.4846716E0,-3.1421654E-2,-2.5616499E-2,-1.9961067E-2,-5.9458387E-1,-1.07744664E-1,2.770472E-1,6.373665E-1,8.0742174E-1,1.1646708E0,1.3812226E0,3.721436E-2,1.763307E0,4.550189E-2,4.9558092E-2,5.493337E-2,6.1802432E-2,-1.5783032E-2,-1.165218E-2,-9.109615E-3,-1.5259399E-3,5.4121516E-3,9.988385E-3,1.3212571E-2,1.6343202E-2,1.7774802E-2,1.9975133E-2,2.5192197E-2,2.8232167E-2,3.0739928E-2,3.3177663E-2,4.0019203E-2,4.2216487E-2],"categories":[],"categories_nodes":[],"categories_segments":[],"categories_sizes":[],"default_left":[0,0,0,0,0,0,0,0,0,0,0,0,0,0,0,0,0,0,0,0,0,0,0,0,0,0,0,0,0,0,0,0,0,0,0,0,0,0,0,0,0,0,0,0,0,0,0],"id":3,"left_children":[1,3,5,7,9,11,13,15,17,19,21,23,25,27,29,-1,-1,-1,31,33,35,37,39,41,43,-1,45,-1,-1,-1,-1,-1,-1,-1,-1,-1,-1,-1,-1,-1,-1,-1,-1,-1,-1,-1,-1],"loss_changes":[4.0724434E3,6.946445E2,1.0030781E3,2.4871185E1,6.422229E1,2.4903711E2,1.6522656E2,1.5161438E0,4.086899E0,6.332077E0,2.9643555E0,2.4648682E1,2.3952148E1,1.7910156E1,2.1084473E1,0E0,0E0,0E0,4.936943E-1,5.485404E-1,2.7854729E0,4.653473E-1,8.9538574E-2,2.651123E0,1.6162109E0,0E0,2.5664062E0,0E0,0E0,0E0,0E0,0E0,0E0,0E0,0E0,0E0,0E0,0E0,0E0,0E0,0E0,0E0,0E0,0E0,0E0,0E0,0E0],"parents":[2147483647,0,0,1,1,2,2,3,3,4,4,5,5,6,6,7,7,8,8,9,9,10,10,11,11,12,12,13,13,14,14,18,18,19,19,20,20,21,21,22,22,23,23,24,24,26,26],"right_children":[2,4,6,8,10,12,14,16,18,20,22,24,26,28,30,-1,-1,-1,32,34,36,38,40,42,44,-1,46,-1,-1,-1,-1,-1,-1,-1,-1,-1,-1,-1,-1,-1,-1,-1,-1,-1,-1,-1,-1],"split_conditions":[9.477894E-1,-3.4249032E-1,1.8687205E0,-9.9425226E-1,5.187938E-1,1.4951488E0,2.2679937E0,-1.2039728E0,-7.133499E-1,8.61777E-2,7.323679E-1,1.2753628E0,1.6826884E0,2.0425181E0,2.508786E0,-3.1421654E-2,-2.5616499E-2,-1.9961067E-2,-6.1618614E-1,-3.7106368E-1,3.7156355E-1,6.6268796E-1,8.197798E-1,1.1474024E0,1.3737155E0,3.721436E-2,1.7715567E0,4.550189E-2,4.9558092E-2,5.493337E-2,6.1802432E-2,-1.5783032E-2,-1.165218E-2,-9.109615E-3,-1.5259399E-3,5.4121516E-3,9.988385E-3,1.3212571E-2,1.6343202E-2,1.7774802E-2,1.9975133E-2,2.5192197E-2,2.8232167E-2,3.0739928E-2,3.3177663E-2,4.0019203E-2,4.2216487E-2],"split_indices":[5,2,5,5,5,5,5,0,5,5,1,5,5,5,0,0,0,0,5,5,0,5,5,5,5,0,0,0,0,0,0,0,0,0,0,0,0,0,0,0,0,0,0,0,0,0,0],"split_type":[0,0,0,0,0,0,0,0,0,0,0,0,0,0,0,0,0,0,0,0,0,0,0,0,0,0,0,0,0,0,0,0,0,0,0,0,0,0,0,0,0,0,0,0,0,0,0],"sum_hessian":[1.2198E4,1.478E3,1.072E4,4.8E2,9.98E2,6.517E3,4.203E3,1.93E2,2.87E2,4.73E2,5.25E2,2.284E3,4.233E3,2.912E3,1.291E3,9.9E1,9.4E1,1.82E2,1.05E2,4.7E1,4.26E2,1.9E2,3.35E2,9.87E2,1.297E3,1.658E3,2.575E3,1.383E3,1.529E3,7.64E2,5.27E2,5.2E1,5.3E1,5E0,4.2E1,3.32E2,9.4E1,9.7E1,9.3E1,1.91E2,1.44E2,3.81E2,6.06E2,5.75E2,7.22E2,1.436E3,1.139E3],"tree_param":{"num_deleted":"0","num_feature":"11","num_nodes":"47","size_leaf_vector":"1"}},{"base_weights":[1.5874575E0,3.2165386E-2,1.8020326E0,-9.5667696E-1,5.077664E-1,1.5582919E0,2.1869252E0,-1.2358583E0,-7.6529557E-1,2.3931013E-1,7.4826074E-1,1.2881869E0,1.7019336E0,2.051796E0,2.4846716E0,-3.1421654E-2,-2.5616499E-2,-8.583259E-1,-5.974668E-1,-1.0362191E-1,2.7640942E-1,6.036687E-1,8.0104816E-1,1.16484E0,1.3809876E0,3.7224315E-2,1.7652752E0,4.577678E-2,4.976428E-2,5.494497E-2,6.1785627E-2,-2.1406427E-2,-1.8193984E-2,-1.5783032E-2,-1.1783787E-2,-4.6406765E-3,1.1981554E-4,5.369557E-3,1.0082166E-2,1.2270229E-2,1.486782E-2,1.7652977E-2,2.0043407E-2,2.5178801E-2,2.8243849E-2,3.072762E-2,3.3177663E-2,3.9994936E-2,4.2295985E-2],"categories":[],"categories_nodes":[],"categories_segments":[],"categories_sizes":[],"default_left":[0,0,0,0,0,0,0,0,0,0,0,0,0,0,0,0,0,0,0,0,0,0,0,0,0,0,0,0,0,0,0,0,0,0,0,0,0,0,0,0,0,0,0,0,0,0,0,0,0],"id":4,"left_children":[1,3,5,7,9,11,13,15,17,19,21,23,25,27,29,-1,-1,31,33,35,37,39,41,43,45,-1,47,-1,-1,-1,-1,-1,-1,-1,-1,-1,-1,-1,-1,-1,-1,-1,-1,-1,-1,-1,-1,-1,-1],"loss_changes":[4.0710762E3,6.9652155E2,1.00228125E3,2.475409E1,6.438312E1,2.5259668E2,1.6203516E2,1.5161438E0,3.9837494E0,6.059122E0,3.5388489E0,2.45354E1,2.465918E1,1.681543E1,2.0859863E1,0E0,0E0,1.4408875E-1,4.3737411E-1,4.91444E-1,2.960968E0,5.577469E-2,3.2339478E-1,2.7105713E0,1.6525879E0,0E0,3.2573242E0,0E0,0E0,0E0,0E0,0E0,0E0,0E0,0E0,0E0,0E0,0E0,0E0,0E0,0E0,0E0,0E0,0E0,0E0,0E0,0E0,0E0,0E0],"parents":[2147483647,0,0,1,1,2,2,3,3,4,4,5,5,6,6,7,7,8,8,9,9,10,10,11,11,12,12,13,13,14,14,17,17,18,18,19,19,20,20,21,21,22,22,23,23,24,24,26,26],"right_children":[2,4,6,8,10,12,14,16,18,20,22,24,26,28,30,-1,-1,32,34,36,38,40,42,44,46,-1,48,-1,-1,-1,-1,-1,-1,-1,-1,-1,-1,-1,-1,-1,-1,-1,-1,-1,-1,-1,-1,-1,-1],"split_conditions":[9.516579E-1,-3.5667494E-1,1.8764069E0,-9.9425226E-1,5.187938E-1,1.4951488E0,2.2679937E0,-1.2039728E0,-7.133499E-1,8.61777E-2,7.030975E-1,1.2753628E0,1.6826884E0,2.055405E0,2.508786E0,-3.1421654E-2,-2.5616499E-2,-8.4397006E-1,-6.1618614E-1,-1.3387081E-2,3.6464313E-1,5.877867E-1,8.197798E-1,1.1474024E0,1.3737155E0,3.7224315E-2,1.7715567E0,4.577678E-2,4.976428E-2,5.494497E-2,6.1785627E-2,-2.1406427E-2,-1.8193984E-2,-1.5783032E-2,-1.1783787E-2,-4.6406765E-3,1.1981554E-4,5.369557E-3,1.0082166E-2,1.2270229E-2,1.486782E-2,1.7652977E-2,2.0043407E-2,2.5178801E-2,2.8243849E-2,3.072762E-2,3.3177663E-2,3.9994936E-2,4.2295985E-2],"split_indices":[1,0,0,5,5,5,5,0,5,0,5,0,0,5,1,0,0,5,5,6,5,5,5,5,5,0,5,0,0,0,0,0,0,0,0,0,0,0,0,0,0,0,0,0,0,0,0,0,0],"split_type":[0,0,0,0,0,0,0,0,0,0,0,0,0,0,0,0,0,0,0,0,0,0,0,0,0,0,0,0,0,0,0,0,0,0,0,0,0,0,0,0,0,0,0,0,0,0,0,0,0],"sum_hessian":[1.2198E4,1.479E3,1.0719E4,4.8E2,9.99E2,6.566E3,4.153E3,1.93E2,2.87E2,4.73E2,5.26E2,2.283E3,4.283E3,2.862E3,1.291E3,9.9E1,9.4E1,1.82E2,1.05E2,4.6E1,4.27E2,1.44E2,3.82E2,9.86E2,1.297E3,1.658E3,2.625E3,1.482E3,1.38E3,7.64E2,5.27E2,9.4E1,8.8E1,5.2E1,5.3E1,2.4E1,2.2E1,3.33E2,9.4E1,5.1E1,9.3E1,2.34E2,1.48E2,3.8E2,6.06E2,5.75E2,7.22E2,1.436E3,1.189E3],"tree_param":{"num_deleted":"0","num_feature":"11","num_nodes":"49","size_leaf_vector":"1"}},{"base_weights":[1.5874575E0,3.1306338E-2,1.8019861E0,-9.5667696E-1,5.069707E-1,1.555778E0,2.1832852E0,-1.1898144E0,-7.3830473E-1,2.4068698E-1,7.4500716E-1,1.2881933E0,1.6998204E0,2.0490074E0,2.4843442E0,-3.1421654E-2,-2.4618398E-2,-7.977401E-1,-5.0670284E-1,-1.0137814E-1,2.7866453E-1,5.975696E-1,7.999371E-1,1.1646708E0,1.3812226E0,3.7120797E-2,1.7603539E0,4.5624055E-2,4.9682114E-2,5.491007E-2,6.1817557E-2,-2.0197205E-2,-1.6555846E-2,-1.2246114E-2,-7.594645E-3,-3.6450424E-3,1.0292991E-3,5.385397E-3,1.0291338E-2,1.2085115E-2,1.47336265E-2,1.7439343E-2,1.9681374E-2,2.5192197E-2,2.8232167E-2,3.0879522E-2,3.325362E-2,3.9955597E-2,4.2216487E-2],"categories":[],"categories_nodes":[],"categories_segments":[],"categories_sizes":[],"default_left":[0,0,0,0,0,0,0,0,0,0,0,0,0,0,0,0,0,0,0,0,0,0,0,0,0,0,0,0,0,0,0,0,0,0,0,0,0,0,0,0,0,0,0,0,0,0,0,0,0],"id":5,"left_children":[1,3,5,7,9,11,13,15,17,19,21,23,25,27,29,-1,-1,31,33,35,37,39,41,43,45,-1,47,-1,-1,-1,-1,-1,-1,-1,-1,-1,-1,-1,-1,-1,-1,-1,-1,-1,-1,-1,-1,-1,-1],"loss_changes":[4.0724434E3,6.9553876E2,1.0030781E3,2.360962E1,6.3142548E1,2.4903711E2,1.6485742E2,3.4596252E0,3.050888E0,6.1728954E0,3.7900085E0,2.4648682E1,2.3749023E1,1.7984375E1,2.1392578E1,0E0,0E0,5.840225E-1,2.1410942E-2,3.939289E-1,3.1848412E0,8.279419E-2,2.4937439E-1,2.651123E0,1.4760742E0,0E0,3.0664062E0,0E0,0E0,0E0,0E0,0E0,0E0,0E0,0E0,0E0,0E0,0E0,0E0,0E0,0E0,0E0,0E0,0E0,0E0,0E0,0E0,0E0,0E0],"parents":[2147483647,0,0,1,1,2,2,3,3,4,4,5,5,6,6,7,7,8,8,9,9,10,10,11,11,12,12,13,13,14,14,17,17,18,18,19,19,20,20,21,21,22,22,23,23,24,24,26,26],"right_children":[2,4,6,8,10,12,14,16,18,20,22,24,26,28,30,-1,-1,32,34,36,38,40,42,44,46,-1,48,-1,-1,-1,-1,-1,-1,-1,-1,-1,-1,-1,-1,-1,-1,-1,-1,-1,-1,-1,-1,-1,-1],"split_conditions":[9.477894E-1,-3.5667494E-1,1.8687205E0,-9.1629076E-1,5.187938E-1,1.4951488E0,2.2679937E0,-1.2039728E0,-6.1618614E-1,8.61777E-2,7.030975E-1,1.2753628E0,1.6770966E0,2.05027E0,2.508786E0,-3.1421654E-2,-2.4618398E-2,-7.765288E-1,-3.7106368E-1,8.61777E-2,3.6464313E-1,5.877867E-1,8.020016E-1,1.1474024E0,1.3837912E0,3.7120797E-2,1.7715567E0,4.5624055E-2,4.9682114E-2,5.491007E-2,6.1817557E-2,-2.0197205E-2,-1.6555846E-2,-1.2246114E-2,-7.594645E-3,-3.6450424E-3,1.0292991E-3,5.385397E-3,1.0291338E-2,1.2085115E-2,1.47336265E-2,1.7439343E-2,1.9681374E-2,2.5192197E-2,2.8232167E-2,3.0879522E-2,3.325362E-2,3.9955597E-2,4.2216487E-2],"split_indices":[5,0,5,1,0,5,0,0,5,5,5,5,0,5,5,0,0,5,5,3,5,0,5,5,1,0,0,0,0,0,0,0,0,0,0,0,0,0,0,0,0,0,0,0,0,0,0,0,0],"split_type":[0,0,0,0,0,0,0,0,0,0,0,0,0,0,0,0,0,0,0,0,0,0,0,0,0,0,0,0,0,0,0,0,0,0,0,0,0,0,0,0,0,0,0,0,0,0,0,0,0],"sum_hessian":[1.2198E4,1.478E3,1.072E4,4.8E2,9.98E2,6.517E3,4.203E3,2.3E2,2.5E2,4.72E2,5.26E2,2.284E3,4.233E3,2.912E3,1.291E3,9.9E1,1.31E2,1.97E2,5.3E1,4.7E1,4.25E2,1.46E2,3.8E2,9.87E2,1.297E3,1.571E3,2.662E3,1.469E3,1.443E3,7.64E2,5.27E2,1.03E2,9.4E1,4.6E1,7E0,3.4E1,1.3E1,3.32E2,9.3E1,5.1E1,9.5E1,1.91E2,1.89E2,3.81E2,6.06E2,6.32E2,6.65E2,1.523E3,1.139E3],"tree_param":{"num_deleted":"0","num_feature":"11","num_nodes":"49","size_leaf_vector":"1"}},{"base_weights":[1.5874575E0,3.268314E-2,1.8021262E0,-9.5667696E-1,5.080573E-1,1.555933E0,2.1832852E0,-1.1908584E0,-7.3552996E-1,2.3931013E-1,7.4835676E-1,1.2884012E0,1.6998204E0,2.0488622E0,2.4846716E0,-3.179663E-2,-2.4870442E-2,-7.9452044E-1,-5.0670284E-1,-1.0137814E-1,2.770472E-1,1.4038807E-2,8.0104274E-1,1.1649019E0,1.3812226E0,3.721436E-2,1.763307E0,4.5650832E-2,4.964804E-2,5.493337E-2,6.1802432E-2,-2.006997E-2,-1.6555846E-2,-1.2246114E-2,-7.594645E-3,-3.6133064E-3,1.3009793E-3,5.385397E-3,1.0082166E-2,1.7664446E-2,2.0031465E-2,2.5196167E-2,2.8232167E-2,3.0739928E-2,3.3177663E-2,4.000643E-2,4.223259E-2],"categories":[],"categories_nodes":[],"categories_segments":[],"categories_sizes":[],"default_left":[0,0,0,0,0,0,0,0,0,0,0,0,0,0,0,0,0,0,0,0,0,0,0,0,0,0,0,0,0,0,0,0,0,0,0,0,0,0,0,0,0,0,0,0,0,0,0],"id":6,"left_children":[1,3,5,7,9,11,13,15,17,19,21,23,25,27,29,-1,-1,31,33,35,37,-1,39,41,43,-1,45,-1,-1,-1,-1,-1,-1,-1,-1,-1,-1,-1,-1,-1,-1,-1,-1,-1,-1,-1,-1],"loss_changes":[4.071498E3,6.970245E2,1.00246094E3,2.4034363E1,6.446527E1,2.4863965E2,1.6522656E2,3.5072021E0,2.9720612E0,6.1221027E0,3.5414124E0,2.4561768E1,2.3952148E1,1.7324219E1,2.1084473E1,0E0,0E0,5.003433E-1,2.1410942E-2,4.1642082E-1,2.9382286E0,0E0,3.0618286E-1,2.6273193E0,1.6162109E0,0E0,2.7167969E0,0E0,0E0,0E0,0E0,0E0,0E0,0E0,0E0,0E0,0E0,0E0,0E0,0E0,0E0,0E0,0E0,0E0,0E0,0E0,0E0],"parents":[2147483647,0,0,1,1,2,2,3,3,4,4,5,5,6,6,7,7,8,8,9,9,10,10,11,11,12,12,13,13,14,14,17,17,18,18,19,19,20,20,22,22,23,23,24,24,26,26],"right_children":[2,4,6,8,10,12,14,16,18,20,22,24,26,28,30,-1,-1,32,34,36,38,-1,40,42,44,-1,46,-1,-1,-1,-1,-1,-1,-1,-1,-1,-1,-1,-1,-1,-1,-1,-1,-1,-1,-1,-1],"split_conditions":[9.516579E-1,-3.5667494E-1,1.8687205E0,-9.1629076E-1,5.187938E-1,1.4951488E0,2.2679937E0,-1.2378744E0,-6.1618614E-1,8.61777E-2,7.030975E-1,1.2753628E0,1.6826884E0,2.05027E0,2.508786E0,-3.179663E-2,-2.4870442E-2,-7.765288E-1,-3.7106368E-1,8.61777E-2,3.6464313E-1,1.4038807E-2,8.197798E-1,1.1474024E0,1.3737155E0,3.721436E-2,1.7715567E0,4.5650832E-2,4.964804E-2,5.493337E-2,6.1802432E-2,-2.006997E-2,-1.6555846E-2,-1.2246114E-2,-7.594645E-3,-3.6133064E-3,1.3009793E-3,5.385397E-3,1.0082166E-2,1.7664446E-2,2.0031465E-2,2.5196167E-2,2.8232167E-2,3.0739928E-2,3.3177663E-2,4.000643E-2,4.223259E-2],"split_indices":[0,0,5,0,5,5,5,5,5,5,5,5,5,1,0,0,0,5,5,2,5,0,5,5,5,0,5,0,0,0,0,0,0,0,0,0,0,0,0,0,0,0,0,0,0,0,0],"split_type":[0,0,0,0,0,0,0,0,0,0,0,0,0,0,0,0,0,0,0,0,0,0,0,0,0,0,0,0,0,0,0,0,0,0,0,0,0,0,0,0,0,0,0,0,0,0,0],"sum_hessian":[1.2198E4,1.48E3,1.0718E4,4.8E2,1E3,6.515E3,4.203E3,2.31E2,2.49E2,4.73E2,5.27E2,2.282E3,4.233E3,2.912E3,1.291E3,9E1,1.41E2,1.96E2,5.3E1,4.7E1,4.26E2,1.44E2,3.83E2,9.85E2,1.297E3,1.658E3,2.575E3,1.469E3,1.443E3,7.64E2,5.27E2,1.02E2,9.4E1,4.6E1,7E0,3.5E1,1.2E1,3.32E2,9.4E1,2.35E2,1.48E2,3.79E2,6.06E2,5.75E2,7.22E2,1.436E3,1.139E3],"tree_param":{"num_deleted":"0","num_feature":"11","num_nodes":"47","size_leaf_vector":"1"}},{"base_weights":[1.5874575E0,3.268314E-2,1.8021262E0,-9.5667696E-1,5.080573E-1,1.555933E0,2.1832852E0,-1.2358583E0,-7.6529557E-1,2.4068698E-1,7.4616337E-1,1.2886428E0,1.6996902E0,2.0488622E0,2.4846716E0,-3.1380497E-2,-2.589096E-2,-1.9961067E-2,-5.974668E-1,-1.0362191E-1,2.7802148E-1,5.975696E-1,8.0124724E-1,1.1652111E0,1.3814124E0,3.7112642E-2,1.7603539E0,4.550189E-2,2.130998E0,5.492293E-2,6.1817557E-2,-1.556938E-2,-1.2058502E-2,-4.6406765E-3,1.1981554E-4,5.430233E-3,1.0075744E-2,1.1992467E-2,1.4873854E-2,1.7668094E-2,2.0031465E-2,2.5229862E-2,2.8212927E-2,3.086832E-2,3.327287E-2,3.989139E-2,4.2166606E-2,4.8481785E-2,5.1072177E-2],"categories":[],"categories_nodes":[],"categories_segments":[],"categories_sizes":[],"default_left":[0,0,0,0,0,0,0,0,0,0,0,0,0,0,0,0,0,0,0,0,0,0,0,0,0,0,0,0,0,0,0,0,0,0,0,0,0,0,0,0,0,0,0,0,0,0,0,0,0],"id":7,"left_children":[1,3,5,7,9,11,13,15,17,19,21,23,25,27,29,-1,-1,-1,31,33,35,37,39,41,43,-1,45,-1,47,-1,-1,-1,-1,-1,-1,-1,-1,-1,-1,-1,-1,-1,-1,-1,-1,-1,-1,-1,-1],"loss_changes":[4.071498E3,6.970245E2,1.00246094E3,2.475409E1,6.35466E1,2.4818652E2,1.6522656E2,1.196167E0,3.9837494E0,6.1090336E0,3.8511353E0,2.4532227E1,2.3863281E1,1.7910156E1,2.1287598E1,0E0,0E0,0E0,2.55558E-1,4.91444E-1,2.8499641E0,1.7586899E-1,3.013916E-1,2.4813232E0,1.5627441E0,0E0,3.2216797E0,0E0,3.173828E-2,0E0,0E0,0E0,0E0,0E0,0E0,0E0,0E0,0E0,0E0,0E0,0E0,0E0,0E0,0E0,0E0,0E0,0E0,0E0,0E0],"parents":[2147483647,0,0,1,1,2,2,3,3,4,4,5,5,6,6,7,7,8,8,9,9,10,10,11,11,12,12,13,13,14,14,18,18,19,19,20,20,21,21,22,22,23,23,24,24,26,26,28,28],"right_children":[2,4,6,8,10,12,14,16,18,20,22,24,26,28,30,-1,-1,-1,32,34,36,38,40,42,44,-1,46,-1,48,-1,-1,-1,-1,-1,-1,-1,-1,-1,-1,-1,-1,-1,-1,-1,-1,-1,-1,-1,-1],"split_conditions":[9.516579E-1,-3.5667494E-1,1.8687205E0,-9.9425226E-1,5.187938E-1,1.4951488E0,2.2679937E0,-1.2039728E0,-7.133499E-1,8.61777E-2,7.030975E-1,1.2753628E0,1.6770966E0,2.0425181E0,2.508786E0,-3.1380497E-2,-2.589096E-2,-1.9961067E-2,-6.1618614E-1,-1.3387081E-2,3.7843645E-1,5.877867E-1,8.197798E-1,1.1474024E0,1.3837912E0,3.7112642E-2,1.7664417E0,4.550189E-2,2.1435893E0,5.492293E-2,6.1817557E-2,-1.556938E-2,-1.2058502E-2,-4.6406765E-3,1.1981554E-4,5.430233E-3,1.0075744E-2,1.1992467E-2,1.4873854E-2,1.7668094E-2,2.0031465E-2,2.5229862E-2,2.8212927E-2,3.086832E-2,3.327287E-2,3.989139E-2,4.2166606E-2,4.8481785E-2,5.1072177E-2],"split_indices":[0,0,5,5,0,0,5,3,5,0,5,0,0,5,5,0,0,0,0,6,1,5,5,1,1,0,5,0,5,0,0,0,0,0,0,0,0,0,0,0,0,0,0,0,0,0,0,0,0],"split_type":[0,0,0,0,0,0,0,0,0,0,0,0,0,0,0,0,0,0,0,0,0,0,0,0,0,0,0,0,0,0,0,0,0,0,0,0,0,0,0,0,0,0,0,0,0,0,0,0,0],"sum_hessian":[1.2198E4,1.48E3,1.0718E4,4.8E2,1E3,6.515E3,4.203E3,1.93E2,2.87E2,4.72E2,5.28E2,2.282E3,4.233E3,2.912E3,1.291E3,9.5E1,9.8E1,1.82E2,1.05E2,4.6E1,4.26E2,1.46E2,3.82E2,9.85E2,1.297E3,1.571E3,2.662E3,1.383E3,1.529E3,7.64E2,5.27E2,5.1E1,5.4E1,2.4E1,2.2E1,3.33E2,9.3E1,5.4E1,9.2E1,2.34E2,1.48E2,3.77E2,6.08E2,6.32E2,6.65E2,1.455E3,1.207E3,9.13E2,6.16E2],"tree_param":{"num_deleted":"0","num_feature":"11","num_nodes":"49","size_leaf_vector":"1"}},{"base_weights":[1.5874575E0,3.1306338E-2,1.8019861E0,-9.5667696E-1,5.069707E-1,1.555778E0,2.1832852E0,-1.2358583E0,-7.6529557E-1,2.3931013E-1,7.472067E-1,1.2881933E0,1.6998204E0,2.0488622E0,2.4846716E0,-3.179663E-2,-2.5790764E-2,-2.050744E-2,-6.537349E-1,-1.0250007E-1,2.7540326E-1,6.062569E-1,7.987525E-1,1.1646708E0,1.3812226E0,3.7120797E-2,1.7603539E0,4.550189E-2,2.130998E0,5.492293E-2,6.1817557E-2,-1.6793232E-2,-1.1946111E-2,-3.4213506E-3,2.2622317E-3,5.3427527E-3,1.0082166E-2,1.2270229E-2,1.4960667E-2,1.7463826E-2,1.959602E-2,2.5192197E-2,2.8232167E-2,3.0739928E-2,3.3177663E-2,3.9967373E-2,4.2200744E-2,4.8481785E-2,5.1072177E-2],"categories":[],"categories_nodes":[],"categories_segments":[],"categories_sizes":[],"default_left":[0,0,0,0,0,0,0,0,0,0,0,0,0,0,0,0,0,0,0,0,0,0,0,0,0,0,0,0,0,0,0,0,0,0,0,0,0,0,0,0,0,0,0,0,0,0,0,0,0],"id":8,"left_children":[1,3,5,7,9,11,13,15,17,19,21,23,25,27,29,-1,-1,-1,31,33,35,37,39,41,43,-1,45,-1,47,-1,-1,-1,-1,-1,-1,-1,-1,-1,-1,-1,-1,-1,-1,-1,-1,-1,-1,-1,-1],"loss_changes":[4.0724434E3,6.9553876E2,1.0030781E3,2.475409E1,6.405859E1,2.4903711E2,1.6522656E2,1.7173767E0,3.1673737E0,5.875971E0,3.3373108E0,2.4648682E1,2.3749023E1,1.7910156E1,2.1287598E1,0E0,0E0,0E0,1.0750351E0,4.24337E-1,2.9981995E0,8.30574E-2,1.6853333E-1,2.651123E0,1.6162109E0,0E0,2.9179688E0,0E0,3.173828E-2,0E0,0E0,0E0,0E0,0E0,0E0,0E0,0E0,0E0,0E0,0E0,0E0,0E0,0E0,0E0,0E0,0E0,0E0,0E0,0E0],"parents":[2147483647,0,0,1,1,2,2,3,3,4,4,5,5,6,6,7,7,8,8,9,9,10,10,11,11,12,12,13,13,14,14,18,18,19,19,20,20,21,21,22,22,23,23,24,24,26,26,28,28],"right_children":[2,4,6,8,10,12,14,16,18,20,22,24,26,28,30,-1,-1,-1,32,34,36,38,40,42,44,-1,46,-1,48,-1,-1,-1,-1,-1,-1,-1,-1,-1,-1,-1,-1,-1,-1,-1,-1,-1,-1,-1,-1],"split_conditions":[9.477894E-1,-3.5667494E-1,1.8687205E0,-9.9425226E-1,5.187938E-1,1.4951488E0,2.2679937E0,-1.2378744E0,-7.765288E-1,8.61777E-2,7.030975E-1,1.2753628E0,1.6770966E0,2.0425181E0,2.508786E0,-3.179663E-2,-2.5790764E-2,-2.050744E-2,-6.1618614E-1,8.61777E-2,3.6464313E-1,5.877867E-1,8.020016E-1,1.1474024E0,1.3737155E0,3.7120797E-2,1.7715567E0,4.550189E-2,2.1435893E0,5.492293E-2,6.1817557E-2,-1.6793232E-2,-1.1946111E-2,-3.4213506E-3,2.2622317E-3,5.3427527E-3,1.0082166E-2,1.2270229E-2,1.4960667E-2,1.7463826E-2,1.959602E-2,2.5192197E-2,2.8232167E-2,3.0739928E-2,3.3177663E-2,3.9967373E-2,4.2200744E-2,4.8481785E-2,5.1072177E-2],"split_indices":[5,0,5,5,5,5,5,5,2,1,0,5,0,5,5,0,0,0,0,5,5,5,0,5,5,0,1,0,5,0,0,0,0,0,0,0,0,0,0,0,0,0,0,0,0,0,0,0,0],"split_type":[0,0,0,0,0,0,0,0,0,0,0,0,0,0,0,0,0,0,0,0,0,0,0,0,0,0,0,0,0,0,0,0,0,0,0,0,0,0,0,0,0,0,0,0,0,0,0,0,0],"sum_hessian":[1.2198E4,1.478E3,1.072E4,4.8E2,9.98E2,6.517E3,4.203E3,1.93E2,2.87E2,4.73E2,5.25E2,2.284E3,4.233E3,2.912E3,1.291E3,9E1,1.03E2,1.37E2,1.5E2,4.5E1,4.28E2,1.44E2,3.81E2,9.87E2,1.297E3,1.571E3,2.662E3,1.383E3,1.529E3,7.64E2,5.27E2,9.8E1,5.2E1,3.7E1,8E0,3.34E2,9.4E1,5.1E1,9.3E1,1.91E2,1.9E2,3.81E2,6.06E2,5.75E2,7.22E2,1.523E3,1.139E3,9.13E2,6.16E2],"tree_param":{"num_deleted":"0","num_feature":"11","num_nodes":"49","size_leaf_vector":"1"}},{"base_weights":[1.5874575E0,3.1306338E-2,1.8019861E0,-9.5667696E-1,5.069707E-1,1.555778E0,2.1832852E0,-1.2358583E0,-7.6529557E-1,2.4356319E-1,7.405396E-1,1.2881933E0,1.6998204E0,2.0491574E0,2.4840057E0,-3.179663E-2,-2.5790764E-2,-8.828193E-1,-6.512883E-1,-1.0362191E-1,2.8138468E-1,5.835224E-1,8.000016E-1,1.1646708E0,1.3812226E0,3.721436E-2,1.763307E0,4.5624055E-2,4.9689155E-2,5.4896783E-2,6.1817557E-2,-2.0644655E-2,-8.482341E-3,-1.6778367E-2,-1.1747644E-2,-4.6406765E-3,1.1981554E-4,5.3706607E-3,1.0617749E-2,1.1453162E-2,1.4907692E-2,1.7670525E-2,1.9971514E-2,2.5208833E-2,2.8216742E-2,3.0739928E-2,3.3177663E-2,4.000643E-2,4.223259E-2],"categories":[],"categories_nodes":[],"categories_segments":[],"categories_sizes":[],"default_left":[0,0,0,0,0,0,0,0,0,0,0,0,0,0,0,0,0,0,0,0,0,0,0,0,0,0,0,0,0,0,0,0,0,0,0,0,0,0,0,0,0,0,0,0,0,0,0,0,0],"id":9,"left_children":[1,3,5,7,9,11,13,15,17,19,21,23,25,27,29,-1,-1,31,33,35,37,39,41,43,45,-1,47,-1,-1,-1,-1,-1,-1,-1,-1,-1,-1,-1,-1,-1,-1,-1,-1,-1,-1,-1,-1,-1,-1],"loss_changes":[4.0724434E3,6.9553876E2,1.0030781E3,2.475409E1,6.128195E1,2.4903711E2,1.6447656E2,1.7173767E0,3.2838135E0,6.2138863E0,4.472229E0,2.4648682E1,2.3952148E1,1.8060547E1,2.1500977E1,0E0,0E0,2.9136658E-2,1.1739883E0,4.91444E-1,3.6503334E0,4.643669E-1,2.469635E-1,2.5632324E0,1.6162109E0,0E0,2.7167969E0,0E0,0E0,0E0,0E0,0E0,0E0,0E0,0E0,0E0,0E0,0E0,0E0,0E0,0E0,0E0,0E0,0E0,0E0,0E0,0E0,0E0,0E0],"parents":[2147483647,0,0,1,1,2,2,3,3,4,4,5,5,6,6,7,7,8,8,9,9,10,10,11,11,12,12,13,13,14,14,17,17,18,18,19,19,20,20,21,21,22,22,23,23,24,24,26,26],"right_children":[2,4,6,8,10,12,14,16,18,20,22,24,26,28,30,-1,-1,32,34,36,38,40,42,44,46,-1,48,-1,-1,-1,-1,-1,-1,-1,-1,-1,-1,-1,-1,-1,-1,-1,-1,-1,-1,-1,-1,-1,-1],"split_conditions":[9.477894E-1,-3.5667494E-1,1.8687205E0,-9.9425226E-1,5.187938E-1,1.4951488E0,2.2679937E0,-1.2378744E0,-7.765288E-1,8.61777E-2,7.030975E-1,1.2753628E0,1.6826884E0,2.05027E0,2.508786E0,-3.179663E-2,-2.5790764E-2,-6.1618614E-1,-6.1618614E-1,-1.3387081E-2,3.6464313E-1,5.877867E-1,8.197798E-1,1.1474024E0,1.3737155E0,3.721436E-2,1.7715567E0,4.5624055E-2,4.9689155E-2,5.4896783E-2,6.1817557E-2,-2.0644655E-2,-8.482341E-3,-1.6778367E-2,-1.1747644E-2,-4.6406765E-3,1.1981554E-4,5.3706607E-3,1.0617749E-2,1.1453162E-2,1.4907692E-2,1.7670525E-2,1.9971514E-2,2.5208833E-2,2.8216742E-2,3.0739928E-2,3.3177663E-2,4.000643E-2,4.223259E-2],"split_indices":[5,0,5,5,2,5,1,5,1,0,5,5,5,5,5,0,0,5,5,6,5,5,5,0,5,0,5,0,0,0,0,0,0,0,0,0,0,0,0,0,0,0,0,0,0,0,0,0,0],"split_type":[0,0,0,0,0,0,0,0,0,0,0,0,0,0,0,0,0,0,0,0,0,0,0,0,0,0,0,0,0,0,0,0,0,0,0,0,0,0,0,0,0,0,0,0,0,0,0,0,0],"sum_hessian":[1.2198E4,1.478E3,1.072E4,4.8E2,9.98E2,6.517E3,4.203E3,1.93E2,2.87E2,4.7E2,5.28E2,2.284E3,4.233E3,2.912E3,1.291E3,9E1,1.03E2,1.38E2,1.49E2,4.6E1,4.24E2,1.48E2,3.8E2,9.87E2,1.297E3,1.658E3,2.575E3,1.469E3,1.443E3,7.64E2,5.27E2,1.36E2,2E0,9.8E1,5.1E1,2.4E1,2.2E1,3.31E2,9.3E1,6.1E1,8.7E1,2.34E2,1.46E2,3.8E2,6.07E2,5.75E2,7.22E2,1.436E3,1.139E3],"tree_param":{"num_deleted":"0","num_feature":"11","num_nodes":"49","size_leaf_vector":"1"}},{"base_weights":[1.5874575E0,3.1306338E-2,1.8019861E0,-9.6092564E-1,5.046153E-1,1.555778E0,2.1832852E0,-1.2358583E0,-7.7040684E-1,2.3604578E-1,7.472067E-1,1.2884346E0,1.6996902E0,2.0490074E0,2.4843442E0,-3.179663E-2,-2.5790764E-2,-1.9961067E-2,-6.067215E-1,-1.1186899E-1,2.770472E-1,1.4038807E-2,7.9973495E-1,1.1646708E0,1.3816472E0,1.5998851E0,1.763307E0,4.5624055E-2,4.9682114E-2,5.4920513E-2,6.1802432E-2,-1.556938E-2,-1.2378885E-2,-7.2799684E-3,-1.4257652E-3,5.385397E-3,1.0082166E-2,1.7436069E-2,1.9681374E-2,2.5192197E-2,2.8232167E-2,3.0739928E-2,3.319539E-2,3.5838228E-2,3.7806813E-2,4.000643E-2,4.223259E-2],"categories":[],"categories_nodes":[],"categories_segments":[],"categories_sizes":[],"default_left":[0,0,0,0,0,0,0,0,0,0,0,0,0,0,0,0,0,0,0,0,0,0,0,0,0,0,0,0,0,0,0,0,0,0,0,0,0,0,0,0,0,0,0,0,0,0,0],"id":10,"left_children":[1,3,5,7,9,11,13,15,17,19,21,23,25,27,29,-1,-1,-1,31,33,35,-1,37,39,41,43,45,-1,-1,-1,-1,-1,-1,-1,-1,-1,-1,-1,-1,-1,-1,-1,-1,-1,-1,-1,-1],"loss_changes":[4.0724434E3,6.950711E2,1.0030781E3,2.408548E1,6.51066E1,2.4858398E2,1.6485742E2,1.7173767E0,3.5806885E0,6.8353996E0,3.4831543E0,2.4751465E1,2.40625E1,1.7984375E1,2.1188477E1,0E0,0E0,0E0,1.2478638E-1,4.9954748E-1,2.9382286E0,0E0,2.5457764E-1,2.651123E0,1.6662598E0,1.4160156E-2,2.7167969E0,0E0,0E0,0E0,0E0,0E0,0E0,0E0,0E0,0E0,0E0,0E0,0E0,0E0,0E0,0E0,0E0,0E0,0E0,0E0,0E0],"parents":[2147483647,0,0,1,1,2,2,3,3,4,4,5,5,6,6,7,7,8,8,9,9,10,10,11,11,12,12,13,13,14,14,18,18,19,19,20,20,22,22,23,23,24,24,25,25,26,26],"right_children":[2,4,6,8,10,12,14,16,18,20,22,24,26,28,30,-1,-1,-1,32,34,36,-1,38,40,42,44,46,-1,-1,-1,-1,-1,-1,-1,-1,-1,-1,-1,-1,-1,-1,-1,-1,-1,-1,-1,-1],"split_conditions":[9.477894E-1,-3.7106368E-1,1.8687205E0,-9.9425226E-1,5.187938E-1,1.4951488E0,2.2679937E0,-1.2378744E0,-7.133499E-1,8.61777E-2,7.030975E-1,1.2753628E0,1.6826884E0,2.05027E0,2.508786E0,-3.179663E-2,-2.5790764E-2,-1.9961067E-2,-6.1618614E-1,-3.4249032E-1,3.6464313E-1,1.4038807E-2,8.020016E-1,1.1474024E0,1.3737155E0,1.5830939E0,1.7715567E0,4.5624055E-2,4.9682114E-2,5.4920513E-2,6.1802432E-2,-1.556938E-2,-1.2378885E-2,-7.2799684E-3,-1.4257652E-3,5.385397E-3,1.0082166E-2,1.7436069E-2,1.9681374E-2,2.5192197E-2,2.8232167E-2,3.0739928E-2,3.319539E-2,3.5838228E-2,3.7806813E-2,4.000643E-2,4.223259E-2],"split_indices":[5,5,5,5,5,0,0,5,5,5,5,5,5,5,0,0,0,0,0,4,5,0,5,5,5,5,5,0,0,0,0,0,0,0,0,0,0,0,0,0,0,0,0,0,0,0,0],"split_type":[0,0,0,0,0,0,0,0,0,0,0,0,0,0,0,0,0,0,0,0,0,0,0,0,0,0,0,0,0,0,0,0,0,0,0,0,0,0,0,0,0,0,0,0,0,0,0],"sum_hessian":[1.2198E4,1.478E3,1.072E4,4.77E2,1.001E3,6.517E3,4.203E3,1.93E2,2.84E2,4.76E2,5.25E2,2.284E3,4.233E3,2.912E3,1.291E3,9E1,1.03E2,1.82E2,1.02E2,5E1,4.26E2,1.44E2,3.81E2,9.87E2,1.297E3,1.658E3,2.575E3,1.469E3,1.443E3,7.64E2,5.27E2,5.1E1,5.1E1,9E0,4.1E1,3.32E2,9.4E1,1.92E2,1.89E2,3.81E2,6.06E2,5.75E2,7.22E2,5.24E2,1.134E3,1.436E3,1.139E3],"tree_param":{"num_deleted":"0","num_feature":"11","num_nodes":"47","size_leaf_vector":"1"}},{"base_weights":[1.5874575E0,3.1306338E-2,1.8019861E0,-9.5667696E-1,5.069707E-1,1.555778E0,2.1832852E0,-1.1908584E0,-7.3552996E-1,2.3931013E-1,7.472067E-1,1.2881933E0,1.6998204E0,2.0490074E0,2.4843442E0,-3.179663E-2,-2.4870442E-2,-7.9452044E-1,-5.0670284E-1,-1.0250007E-1,2.7540326E-1,6.036687E-1,7.9973495E-1,1.1646708E0,1.3812226E0,3.7120797E-2,1.7603539E0,4.5637295E-2,4.966864E-2,5.491007E-2,6.1817557E-2,-2.006997E-2,-1.6555846E-2,-1.2246114E-2,-7.594645E-3,-3.925615E-3,4.7748297E-4,5.3427527E-3,1.0082166E-2,1.2270229E-2,1.486782E-2,1.7436069E-2,1.9681374E-2,2.5192197E-2,2.8232167E-2,3.0739928E-2,3.3177663E-2,3.989139E-2,4.2166606E-2],"categories":[],"categories_nodes":[],"categories_segments":[],"categories_sizes":[],"default_left":[0,0,0,0,0,0,0,0,0,0,0,0,0,0,0,0,0,0,0,0,0,0,0,0,0,0,0,0,0,0,0,0,0,0,0,0,0,0,0,0,0,0,0,0,0,0,0,0,0],"id":11,"left_children":[1,3,5,7,9,11,13,15,17,19,21,23,25,27,29,-1,-1,31,33,35,37,39,41,43,45,-1,47,-1,-1,-1,-1,-1,-1,-1,-1,-1,-1,-1,-1,-1,-1,-1,-1,-1,-1,-1,-1,-1,-1],"loss_changes":[4.0724434E3,6.9553876E2,1.0030781E3,2.4034363E1,6.405859E1,2.4903711E2,1.6485742E2,3.5072021E0,2.9720612E0,5.875971E0,3.4831543E0,2.4648682E1,2.3749023E1,1.769336E1,2.1392578E1,0E0,0E0,5.003433E-1,2.1410942E-2,3.78696E-1,2.9981995E0,5.577469E-2,2.5457764E-1,2.651123E0,1.6162109E0,0E0,3.2216797E0,0E0,0E0,0E0,0E0,0E0,0E0,0E0,0E0,0E0,0E0,0E0,0E0,0E0,0E0,0E0,0E0,0E0,0E0,0E0,0E0,0E0,0E0],"parents":[2147483647,0,0,1,1,2,2,3,3,4,4,5,5,6,6,7,7,8,8,9,9,10,10,11,11,12,12,13,13,14,14,17,17,18,18,19,19,20,20,21,21,22,22,23,23,24,24,26,26],"right_children":[2,4,6,8,10,12,14,16,18,20,22,24,26,28,30,-1,-1,32,34,36,38,40,42,44,46,-1,48,-1,-1,-1,-1,-1,-1,-1,-1,-1,-1,-1,-1,-1,-1,-1,-1,-1,-1,-1,-1,-1,-1],"split_conditions":[9.477894E-1,-3.5667494E-1,1.8687205E0,-9.1629076E-1,5.187938E-1,1.4951488E0,2.2679937E0,-1.2378744E0,-6.1618614E-1,8.61777E-2,7.030975E-1,1.2753628E0,1.6770966E0,2.05027E0,2.508786E0,-3.179663E-2,-2.4870442E-2,-7.765288E-1,-3.7106368E-1,9.22084E-4,3.6464313E-1,5.877867E-1,8.020016E-1,1.1474024E0,1.3737155E0,3.7120797E-2,1.7664417E0,4.5637295E-2,4.966864E-2,5.491007E-2,6.1817557E-2,-2.006997E-2,-1.6555846E-2,-1.2246114E-2,-7.594645E-3,-3.925615E-3,4.7748297E-4,5.3427527E-3,1.0082166E-2,1.2270229E-2,1.486782E-2,1.7436069E-2,1.9681374E-2,2.5192197E-2,2.8232167E-2,3.0739928E-2,3.3177663E-2,3.989139E-2,4.2166606E-2],"split_indices":[5,0,5,0,5,5,0,5,5,1,5,5,0,0,5,0,0,5,5,6,5,5,5,5,5,0,5,0,0,0,0,0,0,0,0,0,0,0,0,0,0,0,0,0,0,0,0,0,0],"split_type":[0,0,0,0,0,0,0,0,0,0,0,0,0,0,0,0,0,0,0,0,0,0,0,0,0,0,0,0,0,0,0,0,0,0,0,0,0,0,0,0,0,0,0,0,0,0,0,0,0],"sum_hessian":[1.2198E4,1.478E3,1.072E4,4.8E2,9.98E2,6.517E3,4.203E3,2.31E2,2.49E2,4.73E2,5.25E2,2.284E3,4.233E3,2.912E3,1.291E3,9E1,1.41E2,1.96E2,5.3E1,4.5E1,4.28E2,1.44E2,3.81E2,9.87E2,1.297E3,1.571E3,2.662E3,1.469E3,1.443E3,7.64E2,5.27E2,1.02E2,9.4E1,4.6E1,7E0,2.9E1,1.6E1,3.34E2,9.4E1,5.1E1,9.3E1,1.92E2,1.89E2,3.81E2,6.06E2,5.75E2,7.22E2,1.455E3,1.207E3],"tree_param":{"num_deleted":"0","num_feature":"11","num_nodes":"49","size_leaf_vector":"1"}},{"base_weights":[1.5874575E0,3.1306338E-2,1.8019861E0,-9.6092564E-1,5.046153E-1,1.555778E0,2.1832852E0,-1.1898144E0,-7.438521E-1,2.3604578E-1,7.472067E-1,1.2881933E0,1.6998204E0,2.0488622E0,2.4846716E0,-3.1421654E-2,-2.4618398E-2,-1.9430233E-2,-6.067215E-1,-1.1186899E-1,2.770472E-1,6.036687E-1,7.9973495E-1,1.1649795E0,1.3809876E0,3.7120797E-2,1.7603539E0,4.550189E-2,2.130998E0,5.493337E-2,6.1802432E-2,-1.5783032E-2,-1.2094294E-2,-7.526821E-3,-1.5102427E-3,5.385397E-3,1.0082166E-2,1.2270229E-2,1.486782E-2,1.7719842E-2,1.9867966E-2,2.5192197E-2,2.8243849E-2,3.072762E-2,3.3177663E-2,3.9955597E-2,4.2216487E-2,4.8481785E-2,5.1072177E-2],"categories":[],"categories_nodes":[],"categories_segments":[],"categories_sizes":[],"default_left":[0,0,0,0,0,0,0,0,0,0,0,0,0,0,0,0,0,0,0,0,0,0,0,0,0,0,0,0,0,0,0,0,0,0,0,0,0,0,0,0,0,0,0,0,0,0,0,0,0],"id":12,"left_children":[1,3,5,7,9,11,13,15,17,19,21,23,25,27,29,-1,-1,-1,31,33,35,37,39,41,43,-1,45,-1,47,-1,-1,-1,-1,-1,-1,-1,-1,-1,-1,-1,-1,-1,-1,-1,-1,-1,-1,-1,-1],"loss_changes":[4.0724434E3,6.950711E2,1.0030781E3,2.2864746E1,6.51066E1,2.4903711E2,1.6522656E2,3.4596252E0,2.6098938E0,6.8353996E0,3.4831543E0,2.4516846E1,2.3749023E1,1.7910156E1,2.1084473E1,0E0,0E0,0E0,2.8931808E-1,4.8585725E-1,2.9382286E0,5.577469E-2,1.3687134E-1,2.6811523E0,1.6525879E0,0E0,3.0664062E0,0E0,3.173828E-2,0E0,0E0,0E0,0E0,0E0,0E0,0E0,0E0,0E0,0E0,0E0,0E0,0E0,0E0,0E0,0E0,0E0,0E0,0E0,0E0],"parents":[2147483647,0,0,1,1,2,2,3,3,4,4,5,5,6,6,7,7,8,8,9,9,10,10,11,11,12,12,13,13,14,14,18,18,19,19,20,20,21,21,22,22,23,23,24,24,26,26,28,28],"right_children":[2,4,6,8,10,12,14,16,18,20,22,24,26,28,30,-1,-1,-1,32,34,36,38,40,42,44,-1,46,-1,48,-1,-1,-1,-1,-1,-1,-1,-1,-1,-1,-1,-1,-1,-1,-1,-1,-1,-1,-1,-1],"split_conditions":[9.477894E-1,-3.7106368E-1,1.8687205E0,-9.1629076E-1,5.187938E-1,1.4951488E0,2.2679937E0,-1.2039728E0,-7.133499E-1,8.61777E-2,7.030975E-1,1.2753628E0,1.6770966E0,2.0425181E0,2.508786E0,-3.1421654E-2,-2.4618398E-2,-1.9430233E-2,-6.1618614E-1,-3.5667494E-1,3.6464313E-1,5.877867E-1,8.197798E-1,1.1474024E0,1.3737155E0,3.7120797E-2,1.7715567E0,4.550189E-2,2.1435893E0,5.493337E-2,6.1802432E-2,-1.5783032E-2,-1.2094294E-2,-7.526821E-3,-1.5102427E-3,5.385397E-3,1.0082166E-2,1.2270229E-2,1.486782E-2,1.7719842E-2,1.9867966E-2,2.5192197E-2,2.8243849E-2,3.072762E-2,3.3177663E-2,3.9955597E-2,4.2216487E-2,4.8481785E-2,5.1072177E-2],"split_indices":[5,5,5,1,5,5,5,0,5,5,5,0,0,5,0,0,0,0,5,1,5,5,0,5,5,0,0,0,5,0,0,0,0,0,0,0,0,0,0,0,0,0,0,0,0,0,0,0,0],"split_type":[0,0,0,0,0,0,0,0,0,0,0,0,0,0,0,0,0,0,0,0,0,0,0,0,0,0,0,0,0,0,0,0,0,0,0,0,0,0,0,0,0,0,0,0,0,0,0,0,0],"sum_hessian":[1.2198E4,1.478E3,1.072E4,4.77E2,1.001E3,6.517E3,4.203E3,2.3E2,2.47E2,4.76E2,5.25E2,2.284E3,4.233E3,2.912E3,1.291E3,9.9E1,1.31E2,1.45E2,1.02E2,5E1,4.26E2,1.44E2,3.81E2,9.87E2,1.297E3,1.571E3,2.662E3,1.383E3,1.529E3,7.64E2,5.27E2,5.2E1,5E1,8E0,4.2E1,3.32E2,9.4E1,5.1E1,9.3E1,2.34E2,1.47E2,3.81E2,6.06E2,5.75E2,7.22E2,1.523E3,1.139E3,9.13E2,6.16E2],"tree_param":{"num_deleted":"0","num_feature":"11","num_nodes":"49","size_leaf_vector":"1"}},{"base_weights":[1.5874575E0,3.1306338E-2,1.8019861E0,-9.6092564E-1,5.046153E-1,1.555778E0,2.1832852E0,-1.1908584E0,-7.4106604E-1,2.3740709E-1,7.4500716E-1,1.2881933E0,1.6998204E0,2.0488622E0,2.4846716E0,-3.179663E-2,-2.4870442E-2,-7.926741E-1,-1.2378885E-2,-1.1186899E-1,2.7866453E-1,5.975696E-1,7.999371E-1,1.1646708E0,1.3812226E0,3.721436E-2,1.763307E0,4.550189E-2,4.9558092E-2,5.492293E-2,6.1817557E-2,-2.006997E-2,-1.6445875E-2,-7.2799684E-3,-1.4257652E-3,5.385397E-3,1.0291338E-2,1.1992467E-2,1.4873854E-2,1.7439343E-2,1.9681374E-2,2.5192197E-2,2.8232167E-2,3.0739928E-2,3.3177663E-2,4.000643E-2,4.223259E-2],"categories":[],"categories_nodes":[],"categories_segments":[],"categories_sizes":[],"default_left":[0,0,0,0,0,0,0,0,0,0,0,0,0,0,0,0,0,0,0,0,0,0,0,0,0,0,0,0,0,0,0,0,0,0,0,0,0,0,0,0,0,0,0,0,0,0,0],"id":13,"left_children":[1,3,5,7,9,11,13,15,17,19,21,23,25,27,29,-1,-1,31,-1,33,35,37,39,41,43,-1,45,-1,-1,-1,-1,-1,-1,-1,-1,-1,-1,-1,-1,-1,-1,-1,-1,-1,-1,-1,-1],"loss_changes":[4.0724434E3,6.950711E2,1.0030781E3,2.32818E1,6.418628E1,2.4903711E2,1.6522656E2,3.5072021E0,2.2393494E0,6.8904476E0,3.7900085E0,2.4648682E1,2.3952148E1,1.7910156E1,2.1287598E1,0E0,0E0,5.683975E-1,0E0,4.9954748E-1,3.1848412E0,1.7586899E-1,2.4937439E-1,2.651123E0,1.6162109E0,0E0,2.7167969E0,0E0,0E0,0E0,0E0,0E0,0E0,0E0,0E0,0E0,0E0,0E0,0E0,0E0,0E0,0E0,0E0,0E0,0E0,0E0,0E0],"parents":[2147483647,0,0,1,1,2,2,3,3,4,4,5,5,6,6,7,7,8,8,9,9,10,10,11,11,12,12,13,13,14,14,17,17,19,19,20,20,21,21,22,22,23,23,24,24,26,26],"right_children":[2,4,6,8,10,12,14,16,18,20,22,24,26,28,30,-1,-1,32,-1,34,36,38,40,42,44,-1,46,-1,-1,-1,-1,-1,-1,-1,-1,-1,-1,-1,-1,-1,-1,-1,-1,-1,-1,-1,-1],"split_conditions":[9.477894E-1,-3.7106368E-1,1.8687205E0,-9.1629076E-1,5.187938E-1,1.4951488E0,2.2679937E0,-1.2378744E0,-6.1618614E-1,8.61777E-2,7.030975E-1,1.2753628E0,1.6826884E0,2.0425181E0,2.508786E0,-3.179663E-2,-2.4870442E-2,-7.765288E-1,-1.2378885E-2,-3.4249032E-1,3.6464313E-1,5.877867E-1,8.020016E-1,1.1474024E0,1.3737155E0,3.721436E-2,1.7715567E0,4.550189E-2,4.9558092E-2,5.492293E-2,6.1817557E-2,-2.006997E-2,-1.6445875E-2,-7.2799684E-3,-1.4257652E-3,5.385397E-3,1.0291338E-2,1.1992467E-2,1.4873854E-2,1.7439343E-2,1.9681374E-2,2.5192197E-2,2.8232167E-2,3.0739928E-2,3.3177663E-2,4.000643E-2,4.223259E-2],"split_indices":[5,5,5,0,0,5,5,5,0,5,5,5,5,5,5,0,0,5,0,4,5,5,5,5,5,0,5,0,0,0,0,0,0,0,0,0,0,0,0,0,0,0,0,0,0,0,0],"split_type":[0,0,0,0,0,0,0,0,0,0,0,0,0,0,0,0,0,0,0,0,0,0,0,0,0,0,0,0,0,0,0,0,0,0,0,0,0,0,0,0,0,0,0,0,0,0,0],"sum_hessian":[1.2198E4,1.478E3,1.072E4,4.77E2,1.001E3,6.517E3,4.203E3,2.31E2,2.46E2,4.75E2,5.26E2,2.284E3,4.233E3,2.912E3,1.291E3,9E1,1.41E2,1.95E2,5.1E1,5E1,4.25E2,1.46E2,3.8E2,9.87E2,1.297E3,1.658E3,2.575E3,1.383E3,1.529E3,7.64E2,5.27E2,1.02E2,9.3E1,9E0,4.1E1,3.32E2,9.3E1,5.4E1,9.2E1,1.91E2,1.89E2,3.81E2,6.06E2,5.75E2,7.22E2,1.436E3,1.139E3],"tree_param":{"num_deleted":"0","num_feature":"11","num_nodes":"47","size_leaf_vector":"1"}},{"base_weights":[1.5874575E0,3.1306338E-2,1.8019861E0,-9.5667696E-1,5.069707E-1,1.555778E0,2.1832852E0,-1.2358583E0,-7.6529557E-1,2.3931013E-1,7.472067E-1,1.2881933E0,1.6998204E0,2.0488622E0,2.4846716E0,-3.179663E-2,-2.5790764E-2,-8.549857E-1,-6.055861E-1,-1.0250007E-1,2.7540326E-1,6.062569E-1,7.987525E-1,1.1649795E0,1.3809876E0,3.721436E-2,1.763307E0,4.550189E-2,4.9558092E-2,5.492293E-2,6.1817557E-2,-2.1406427E-2,-1.8013252E-2,-1.6031204E-2,-1.1796366E-2,-3.4213506E-3,2.2622317E-3,5.3693475E-3,9.988385E-3,1.2270229E-2,1.4960667E-2,1.7390847E-2,1.9681374E-2,2.5192197E-2,2.8243849E-2,3.072762E-2,3.3177663E-2,4.000643E-2,4.223259E-2],"categories":[],"categories_nodes":[],"categories_segments":[],"categories_sizes":[],"default_left":[0,0,0,0,0,0,0,0,0,0,0,0,0,0,0,0,0,0,0,0,0,0,0,0,0,0,0,0,0,0,0,0,0,0,0,0,0,0,0,0,0,0,0,0,0,0,0,0,0],"id":14,"left_children":[1,3,5,7,9,11,13,15,17,19,21,23,25,27,29,-1,-1,31,33,35,37,39,41,43,45,-1,47,-1,-1,-1,-1,-1,-1,-1,-1,-1,-1,-1,-1,-1,-1,-1,-1,-1,-1,-1,-1,-1,-1],"loss_changes":[4.0724434E3,6.9553876E2,1.0030781E3,2.475409E1,6.405859E1,2.4903711E2,1.6522656E2,1.7173767E0,3.6076508E0,5.875971E0,3.3373108E0,2.4516846E1,2.3952148E1,1.7910156E1,2.1287598E1,0E0,0E0,2.4551392E-1,5.316658E-1,4.24337E-1,2.844036E0,8.30574E-2,2.9248047E-1,2.6811523E0,1.6525879E0,0E0,2.7167969E0,0E0,0E0,0E0,0E0,0E0,0E0,0E0,0E0,0E0,0E0,0E0,0E0,0E0,0E0,0E0,0E0,0E0,0E0,0E0,0E0,0E0,0E0],"parents":[2147483647,0,0,1,1,2,2,3,3,4,4,5,5,6,6,7,7,8,8,9,9,10,10,11,11,12,12,13,13,14,14,17,17,18,18,19,19,20,20,21,21,22,22,23,23,24,24,26,26],"right_children":[2,4,6,8,10,12,14,16,18,20,22,24,26,28,30,-1,-1,32,34,36,38,40,42,44,46,-1,48,-1,-1,-1,-1,-1,-1,-1,-1,-1,-1,-1,-1,-1,-1,-1,-1,-1,-1,-1,-1,-1,-1],"split_conditions":[9.477894E-1,-3.5667494E-1,1.8687205E0,-9.9425226E-1,5.187938E-1,1.4951488E0,2.2679937E0,-1.2378744E0,-7.133499E-1,8.61777E-2,7.030975E-1,1.2753628E0,1.6826884E0,2.0425181E0,2.508786E0,-3.179663E-2,-2.5790764E-2,-8.4397006E-1,-6.1618614E-1,8.61777E-2,3.7156355E-1,5.877867E-1,8.020016E-1,1.1474024E0,1.3737155E0,3.721436E-2,1.7715567E0,4.550189E-2,4.9558092E-2,5.492293E-2,6.1817557E-2,-2.1406427E-2,-1.8013252E-2,-1.6031204E-2,-1.1796366E-2,-3.4213506E-3,2.2622317E-3,5.3693475E-3,9.988385E-3,1.2270229E-2,1.4960667E-2,1.7390847E-2,1.9681374E-2,2.5192197E-2,2.8243849E-2,3.072762E-2,3.3177663E-2,4.000643E-2,4.223259E-2],"split_indices":[5,0,5,5,5,5,5,5,0,1,0,0,5,5,5,0,0,5,5,5,0,5,5,5,5,0,5,0,0,0,0,0,0,0,0,0,0,0,0,0,0,0,0,0,0,0,0,0,0],"split_type":[0,0,0,0,0,0,0,0,0,0,0,0,0,0,0,0,0,0,0,0,0,0,0,0,0,0,0,0,0,0,0,0,0,0,0,0,0,0,0,0,0,0,0,0,0,0,0,0,0],"sum_hessian":[1.2198E4,1.478E3,1.072E4,4.8E2,9.98E2,6.517E3,4.203E3,1.93E2,2.87E2,4.73E2,5.25E2,2.284E3,4.233E3,2.912E3,1.291E3,9E1,1.03E2,1.81E2,1.06E2,4.5E1,4.28E2,1.44E2,3.81E2,9.87E2,1.297E3,1.658E3,2.575E3,1.383E3,1.529E3,7.64E2,5.27E2,9.4E1,8.7E1,5.4E1,5.2E1,3.7E1,8E0,3.34E2,9.4E1,5.1E1,9.3E1,1.92E2,1.89E2,3.81E2,6.06E2,5.75E2,7.22E2,1.436E3,1.139E3],"tree_param":{"num_deleted":"0","num_feature":"11","num_nodes":"49","size_leaf_vector":"1"}},{"base_weights":[1.5874575E0,3.1306338E-2,1.8019861E0,-9.5667696E-1,5.069707E-1,1.555778E0,2.1832852E0,-1.2358583E0,-7.6529557E-1,2.4184489E-1,7.430169E-1,1.2881933E0,1.6998204E0,2.0488622E0,2.4846716E0,-3.179663E-2,-2.5790764E-2,-1.9961067E-2,-5.974668E-1,-1.0137814E-1,2.8003985E-1,5.921813E-1,8.00205E-1,1.1646708E0,1.3812226E0,3.721436E-2,1.763307E0,4.550189E-2,2.130998E0,5.492293E-2,6.1817557E-2,-1.5783032E-2,-1.1783787E-2,-3.4213506E-3,1.5313664E-3,5.387117E-3,1.0418221E-2,1.1816856E-2,1.4887721E-2,1.7674215E-2,1.9971514E-2,2.5192197E-2,2.8232167E-2,3.0879522E-2,3.325362E-2,4.000643E-2,4.223259E-2,4.8481785E-2,5.1072177E-2],"categories":[],"categories_nodes":[],"categories_segments":[],"categories_sizes":[],"default_left":[0,0,0,0,0,0,0,0,0,0,0,0,0,0,0,0,0,0,0,0,0,0,0,0,0,0,0,0,0,0,0,0,0,0,0,0,0,0,0,0,0,0,0,0,0,0,0,0,0],"id":15,"left_children":[1,3,5,7,9,11,13,15,17,19,21,23,25,27,29,-1,-1,-1,31,33,35,37,39,41,43,-1,45,-1,47,-1,-1,-1,-1,-1,-1,-1,-1,-1,-1,-1,-1,-1,-1,-1,-1,-1,-1,-1,-1],"loss_changes":[4.0724434E3,6.9553876E2,1.0030781E3,2.475409E1,6.233966E1,2.4903711E2,1.6522656E2,1.7173767E0,3.9837494E0,6.2160225E0,4.0806885E0,2.4648682E1,2.3952148E1,1.7910156E1,2.1287598E1,0E0,0E0,0E0,4.3737411E-1,3.7683702E-1,3.3503838E0,2.7576447E-1,2.4234009E-1,2.651123E0,1.4760742E0,0E0,2.7167969E0,0E0,3.173828E-2,0E0,0E0,0E0,0E0,0E0,0E0,0E0,0E0,0E0,0E0,0E0,0E0,0E0,0E0,0E0,0E0,0E0,0E0,0E0,0E0],"parents":[2147483647,0,0,1,1,2,2,3,3,4,4,5,5,6,6,7,7,8,8,9,9,10,10,11,11,12,12,13,13,14,14,18,18,19,19,20,20,21,21,22,22,23,23,24,24,26,26,28,28],"right_children":[2,4,6,8,10,12,14,16,18,20,22,24,26,28,30,-1,-1,-1,32,34,36,38,40,42,44,-1,46,-1,48,-1,-1,-1,-1,-1,-1,-1,-1,-1,-1,-1,-1,-1,-1,-1,-1,-1,-1,-1,-1],"split_conditions":[9.477894E-1,-3.5667494E-1,1.8687205E0,-9.9425226E-1,5.187938E-1,1.4951488E0,2.2679937E0,-1.2378744E0,-7.133499E-1,8.61777E-2,7.030975E-1,1.2753628E0,1.6826884E0,2.0425181E0,2.508786E0,-3.179663E-2,-2.5790764E-2,-1.9961067E-2,-6.1618614E-1,8.61777E-2,3.6464313E-1,5.877867E-1,8.197798E-1,1.1474024E0,1.3837912E0,3.721436E-2,1.7715567E0,4.550189E-2,2.1435893E0,5.492293E-2,6.1817557E-2,-1.5783032E-2,-1.1783787E-2,-3.4213506E-3,1.5313664E-3,5.387117E-3,1.0418221E-2,1.1816856E-2,1.4887721E-2,1.7674215E-2,1.9971514E-2,2.5192197E-2,2.8232167E-2,3.0879522E-2,3.325362E-2,4.000643E-2,4.223259E-2,4.8481785E-2,5.1072177E-2],"split_indices":[5,0,5,5,1,5,5,5,5,5,5,5,5,5,5,0,0,0,5,1,5,5,5,5,1,0,5,0,5,0,0,0,0,0,0,0,0,0,0,0,0,0,0,0,0,0,0,0,0],"split_type":[0,0,0,0,0,0,0,0,0,0,0,0,0,0,0,0,0,0,0,0,0,0,0,0,0,0,0,0,0,0,0,0,0,0,0,0,0,0,0,0,0,0,0,0,0,0,0,0,0],"sum_hessian":[1.2198E4,1.478E3,1.072E4,4.8E2,9.98E2,6.517E3,4.203E3,1.93E2,2.87E2,4.71E2,5.27E2,2.284E3,4.233E3,2.912E3,1.291E3,9E1,1.03E2,1.82E2,1.05E2,4.7E1,4.24E2,1.48E2,3.79E2,9.87E2,1.297E3,1.658E3,2.575E3,1.383E3,1.529E3,7.64E2,5.27E2,5.2E1,5.3E1,3.7E1,1E1,3.31E2,9.3E1,5.8E1,9E1,2.33E2,1.46E2,3.81E2,6.06E2,6.32E2,6.65E2,1.436E3,1.139E3,9.13E2,6.16E2],"tree_param":{"num_deleted":"0","num_feature":"11","num_nodes":"49","size_leaf_vector":"1"}},{"base_weights":[1.5874575E0,3.2165386E-2,1.8020326E0,-9.5667696E-1,5.077664E-1,1.5558169E0,2.1832852E0,-1.1908584E0,-7.3552996E-1,2.3931013E-1,7.4826074E-1,1.2881869E0,1.6998204E0,2.0488622E0,2.4846716E0,-3.179663E-2,-2.4870442E-2,-7.9452044E-1,-5.0670284E-1,-1.0137814E-1,2.770472E-1,6.062569E-1,8.0006826E-1,1.164531E0,1.3812226E0,3.721436E-2,1.763307E0,4.550189E-2,4.9558092E-2,5.492293E-2,6.1817557E-2,-2.006997E-2,-1.6555846E-2,-1.2246114E-2,-7.594645E-3,-3.6133064E-3,1.3009793E-3,5.385397E-3,1.0082166E-2,1.2270229E-2,1.4960667E-2,1.7615838E-2,2.0043407E-2,2.5178801E-2,2.8232167E-2,3.0739928E-2,3.3177663E-2,4.000643E-2,4.223259E-2],"categories":[],"categories_nodes":[],"categories_segments":[],"categories_sizes":[],"default_left":[0,0,0,0,0,0,0,0,0,0,0,0,0,0,0,0,0,0,0,0,0,0,0,0,0,0,0,0,0,0,0,0,0,0,0,0,0,0,0,0,0,0,0,0,0,0,0,0,0],"id":16,"left_children":[1,3,5,7,9,11,13,15,17,19,21,23,25,27,29,-1,-1,31,33,35,37,39,41,43,45,-1,47,-1,-1,-1,-1,-1,-1,-1,-1,-1,-1,-1,-1,-1,-1,-1,-1,-1,-1,-1,-1,-1,-1],"loss_changes":[4.0710762E3,6.9652155E2,1.00289453E3,2.4034363E1,6.438312E1,2.4897266E2,1.6522656E2,3.5072021E0,2.9720612E0,6.1221027E0,3.3920288E0,2.4667725E1,2.3952148E1,1.7910156E1,2.1287598E1,0E0,0E0,5.003433E-1,2.1410942E-2,4.1642082E-1,2.9382286E0,8.30574E-2,3.5516357E-1,2.68042E0,1.6162109E0,0E0,2.7167969E0,0E0,0E0,0E0,0E0,0E0,0E0,0E0,0E0,0E0,0E0,0E0,0E0,0E0,0E0,0E0,0E0,0E0,0E0,0E0,0E0,0E0,0E0],"parents":[2147483647,0,0,1,1,2,2,3,3,4,4,5,5,6,6,7,7,8,8,9,9,10,10,11,11,12,12,13,13,14,14,17,17,18,18,19,19,20,20,21,21,22,22,23,23,24,24,26,26],"right_children":[2,4,6,8,10,12,14,16,18,20,22,24,26,28,30,-1,-1,32,34,36,38,40,42,44,46,-1,48,-1,-1,-1,-1,-1,-1,-1,-1,-1,-1,-1,-1,-1,-1,-1,-1,-1,-1,-1,-1,-1,-1],"split_conditions":[9.516579E-1,-3.5667494E-1,1.8687205E0,-9.1629076E-1,5.187938E-1,1.4951488E0,2.2679937E0,-1.2378744E0,-6.1618614E-1,8.61777E-2,7.030975E-1,1.2753628E0,1.6826884E0,2.0425181E0,2.508786E0,-3.179663E-2,-2.4870442E-2,-7.765288E-1,-3.7106368E-1,8.61777E-2,3.6464313E-1,5.877867E-1,8.197798E-1,1.1474024E0,1.3737155E0,3.721436E-2,1.7715567E0,4.550189E-2,4.9558092E-2,5.492293E-2,6.1817557E-2,-2.006997E-2,-1.6555846E-2,-1.2246114E-2,-7.594645E-3,-3.6133064E-3,1.3009793E-3,5.385397E-3,1.0082166E-2,1.2270229E-2,1.4960667E-2,1.7615838E-2,2.0043407E-2,2.5178801E-2,2.8232167E-2,3.0739928E-2,3.3177663E-2,4.000643E-2,4.223259E-2],"split_indices":[1,0,5,0,5,5,5,5,5,5,0,5,5,5,5,0,0,5,5,2,5,5,5,5,5,0,5,0,0,0,0,0,0,0,0,0,0,0,0,0,0,0,0,0,0,0,0,0,0],"split_type":[0,0,0,0,0,0,0,0,0,0,0,0,0,0,0,0,0,0,0,0,0,0,0,0,0,0,0,0,0,0,0,0,0,0,0,0,0,0,0,0,0,0,0,0,0,0,0,0,0],"sum_hessian":[1.2198E4,1.479E3,1.0719E4,4.8E2,9.99E2,6.516E3,4.203E3,2.31E2,2.49E2,4.73E2,5.26E2,2.283E3,4.233E3,2.912E3,1.291E3,9E1,1.41E2,1.96E2,5.3E1,4.7E1,4.26E2,1.44E2,3.82E2,9.86E2,1.297E3,1.658E3,2.575E3,1.383E3,1.529E3,7.64E2,5.27E2,1.02E2,9.4E1,4.6E1,7E0,3.5E1,1.2E1,3.32E2,9.4E1,5.1E1,9.3E1,2.34E2,1.48E2,3.8E2,6.06E2,5.75E2,7.22E2,1.436E3,1.139E3],"tree_param":{"num_deleted":"0","num_feature":"11","num_nodes":"49","size_leaf_vector":"1"}},{"base_weights":[1.5874575E0,3.268314E-2,1.8021262E0,-9.5667696E-1,5.080573E-1,1.5584075E0,2.1869252E0,-1.2358583E0,-7.6529557E-1,2.3931013E-1,7.4835676E-1,1.2884012E0,1.7019336E0,2.051796E0,2.4846716E0,-3.179663E-2,-2.5790764E-2,-8.583259E-1,-5.974668E-1,-1.0137814E-1,2.770472E-1,6.036687E-1,8.0104274E-1,1.1649019E0,1.3812226E0,3.721436E-2,1.7655457E0,4.5718066E-2,4.964804E-2,5.492293E-2,6.1817557E-2,-2.1406427E-2,-1.8193984E-2,-1.5783032E-2,-1.1783787E-2,-3.6133064E-3,1.3009793E-3,5.385397E-3,1.0082166E-2,1.2270229E-2,1.486782E-2,1.7664446E-2,2.0031465E-2,2.5196167E-2,2.8232167E-2,3.0754194E-2,3.3166293E-2,4.0019203E-2,4.228056E-2],"categories":[],"categories_nodes":[],"categories_segments":[],"categories_sizes":[],"default_left":[0,0,0,0,0,0,0,0,0,0,0,0,0,0,0,0,0,0,0,0,0,0,0,0,0,0,0,0,0,0,0,0,0,0,0,0,0,0,0,0,0,0,0,0,0,0,0,0,0],"id":17,"left_children":[1,3,5,7,9,11,13,15,17,19,21,23,25,27,29,-1,-1,31,33,35,37,39,41,43,45,-1,47,-1,-1,-1,-1,-1,-1,-1,-1,-1,-1,-1,-1,-1,-1,-1,-1,-1,-1,-1,-1,-1,-1],"loss_changes":[4.071498E3,6.970245E2,1.00184766E3,2.475409E1,6.446527E1,2.5225879E2,1.6203516E2,1.7173767E0,3.9837494E0,6.1221027E0,3.5414124E0,2.4561768E1,2.4893555E1,1.6237305E1,2.1287598E1,0E0,0E0,1.4408875E-1,4.3737411E-1,4.1642082E-1,2.9382286E0,5.577469E-2,3.0618286E-1,2.6273193E0,1.5427246E0,0E0,3.0390625E0,0E0,0E0,0E0,0E0,0E0,0E0,0E0,0E0,0E0,0E0,0E0,0E0,0E0,0E0,0E0,0E0,0E0,0E0,0E0,0E0,0E0,0E0],"parents":[2147483647,0,0,1,1,2,2,3,3,4,4,5,5,6,6,7,7,8,8,9,9,10,10,11,11,12,12,13,13,14,14,17,17,18,18,19,19,20,20,21,21,22,22,23,23,24,24,26,26],"right_children":[2,4,6,8,10,12,14,16,18,20,22,24,26,28,30,-1,-1,32,34,36,38,40,42,44,46,-1,48,-1,-1,-1,-1,-1,-1,-1,-1,-1,-1,-1,-1,-1,-1,-1,-1,-1,-1,-1,-1,-1,-1],"split_conditions":[9.516579E-1,-3.5667494E-1,1.8764069E0,-9.9425226E-1,5.187938E-1,1.4951488E0,2.2679937E0,-1.2378744E0,-7.133499E-1,8.61777E-2,7.030975E-1,1.2753628E0,1.6826884E0,2.05027E0,2.508786E0,-3.179663E-2,-2.5790764E-2,-8.4397006E-1,-6.1618614E-1,8.61777E-2,3.6464313E-1,5.877867E-1,8.197798E-1,1.1474024E0,1.3737155E0,3.721436E-2,1.7715567E0,4.5718066E-2,4.964804E-2,5.492293E-2,6.1817557E-2,-2.1406427E-2,-1.8193984E-2,-1.5783032E-2,-1.1783787E-2,-3.6133064E-3,1.3009793E-3,5.385397E-3,1.0082166E-2,1.2270229E-2,1.486782E-2,1.7664446E-2,2.0031465E-2,2.5196167E-2,2.8232167E-2,3.0754194E-2,3.3166293E-2,4.0019203E-2,4.228056E-2],"split_indices":[0,0,0,5,5,5,5,5,5,5,5,5,5,1,5,0,0,5,5,2,5,5,5,5,0,0,0,0,0,0,0,0,0,0,0,0,0,0,0,0,0,0,0,0,0,0,0,0,0],"split_type":[0,0,0,0,0,0,0,0,0,0,0,0,0,0,0,0,0,0,0,0,0,0,0,0,0,0,0,0,0,0,0,0,0,0,0,0,0,0,0,0,0,0,0,0,0,0,0,0,0],"sum_hessian":[1.2198E4,1.48E3,1.0718E4,4.8E2,1E3,6.565E3,4.153E3,1.93E2,2.87E2,4.73E2,5.27E2,2.282E3,4.283E3,2.862E3,1.291E3,9E1,1.03E2,1.82E2,1.05E2,4.7E1,4.26E2,1.44E2,3.83E2,9.85E2,1.297E3,1.658E3,2.625E3,1.419E3,1.443E3,7.64E2,5.27E2,9.4E1,8.8E1,5.2E1,5.3E1,3.5E1,1.2E1,3.32E2,9.4E1,5.1E1,9.3E1,2.35E2,1.48E2,3.79E2,6.06E2,5.75E2,7.22E2,1.436E3,1.189E3],"tree_param":{"num_deleted":"0","num_feature":"11","num_nodes":"49","size_leaf_vector":"1"}},{"base_weights":[1.5874575E0,3.1306338E-2,1.8019861E0,-9.5667696E-1,5.069707E-1,1.555778E0,2.1832852E0,-1.2358583E0,-7.6529557E-1,2.4184489E-1,7.430169E-1,1.2884346E0,1.6996902E0,2.0488622E0,2.4846716E0,-3.179663E-2,-2.5790764E-2,-8.549857E-1,-6.055861E-1,-1.0137814E-1,2.8003985E-1,5.9418553E-1,7.983446E-1,1.1646708E0,1.3816472E0,1.5998851E0,1.763307E0,4.550189E-2,4.9558092E-2,5.492293E-2,6.1817557E-2,-2.1406427E-2,-1.8013252E-2,-1.6031204E-2,-1.1796366E-2,-3.6450424E-3,1.0292991E-3,5.387117E-3,1.0418221E-2,1.1847324E-2,1.4835296E-2,1.7372072E-2,1.9681374E-2,2.5192197E-2,2.8232167E-2,3.0739928E-2,3.319539E-2,3.5838228E-2,3.7806813E-2,4.0019203E-2,4.2216487E-2],"categories":[],"categories_nodes":[],"categories_segments":[],"categories_sizes":[],"default_left":[0,0,0,0,0,0,0,0,0,0,0,0,0,0,0,0,0,0,0,0,0,0,0,0,0,0,0,0,0,0,0,0,0,0,0,0,0,0,0,0,0,0,0,0,0,0,0,0,0,0,0],"id":18,"left_children":[1,3,5,7,9,11,13,15,17,19,21,23,25,27,29,-1,-1,31,33,35,37,39,41,43,45,47,49,-1,-1,-1,-1,-1,-1,-1,-1,-1,-1,-1,-1,-1,-1,-1,-1,-1,-1,-1,-1,-1,-1,-1,-1],"loss_changes":[4.0724434E3,6.9553876E2,1.0030781E3,2.475409E1,6.233966E1,2.4858398E2,1.6522656E2,1.7173767E0,3.6076508E0,6.2160225E0,3.8734741E0,2.4751465E1,2.40625E1,1.7910156E1,2.1287598E1,0E0,0E0,2.4551392E-1,5.316658E-1,3.939289E-1,3.3503838E0,2.1985626E-1,3.083954E-1,2.651123E0,1.6662598E0,1.4160156E-2,2.5664062E0,0E0,0E0,0E0,0E0,0E0,0E0,0E0,0E0,0E0,0E0,0E0,0E0,0E0,0E0,0E0,0E0,0E0,0E0,0E0,0E0,0E0,0E0,0E0,0E0],"parents":[2147483647,0,0,1,1,2,2,3,3,4,4,5,5,6,6,7,7,8,8,9,9,10,10,11,11,12,12,13,13,14,14,17,17,18,18,19,19,20,20,21,21,22,22,23,23,24,24,25,25,26,26],"right_children":[2,4,6,8,10,12,14,16,18,20,22,24,26,28,30,-1,-1,32,34,36,38,40,42,44,46,48,50,-1,-1,-1,-1,-1,-1,-1,-1,-1,-1,-1,-1,-1,-1,-1,-1,-1,-1,-1,-1,-1,-1,-1,-1],"split_conditions":[9.477894E-1,-3.5667494E-1,1.8687205E0,-9.9425226E-1,5.187938E-1,1.4951488E0,2.2679937E0,-1.2378744E0,-7.133499E-1,8.61777E-2,7.030975E-1,1.2753628E0,1.6826884E0,2.0425181E0,2.508786E0,-3.179663E-2,-2.5790764E-2,-8.4397006E-1,-6.1618614E-1,8.61777E-2,3.6464313E-1,5.877867E-1,8.020016E-1,1.1474024E0,1.3737155E0,1.5830939E0,1.7715567E0,4.550189E-2,4.9558092E-2,5.492293E-2,6.1817557E-2,-2.1406427E-2,-1.8013252E-2,-1.6031204E-2,-1.1796366E-2,-3.6450424E-3,1.0292991E-3,5.387117E-3,1.0418221E-2,1.1847324E-2,1.4835296E-2,1.7372072E-2,1.9681374E-2,2.5192197E-2,2.8232167E-2,3.0739928E-2,3.319539E-2,3.5838228E-2,3.7806813E-2,4.0019203E-2,4.2216487E-2],"split_indices":[5,0,5,5,1,0,5,5,0,5,0,5,5,5,5,0,0,5,5,3,5,0,5,5,5,5,0,0,0,0,0,0,0,0,0,0,0,0,0,0,0,0,0,0,0,0,0,0,0,0,0],"split_type":[0,0,0,0,0,0,0,0,0,0,0,0,0,0,0,0,0,0,0,0,0,0,0,0,0,0,0,0,0,0,0,0,0,0,0,0,0,0,0,0,0,0,0,0,0,0,0,0,0,0,0],"sum_hessian":[1.2198E4,1.478E3,1.072E4,4.8E2,9.98E2,6.517E3,4.203E3,1.93E2,2.87E2,4.71E2,5.27E2,2.284E3,4.233E3,2.912E3,1.291E3,9E1,1.03E2,1.81E2,1.06E2,4.7E1,4.24E2,1.46E2,3.81E2,9.87E2,1.297E3,1.658E3,2.575E3,1.383E3,1.529E3,7.64E2,5.27E2,9.4E1,8.7E1,5.4E1,5.2E1,3.4E1,1.3E1,3.31E2,9.3E1,5.4E1,9.2E1,1.92E2,1.89E2,3.81E2,6.06E2,5.75E2,7.22E2,5.24E2,1.134E3,1.436E3,1.139E3],"tree_param":{"num_deleted":"0","num_feature":"11","num_nodes":"51","size_leaf_vector":"1"}},{"base_weights":[1.5874575E0,3.268314E-2,1.8021262E0,-9.5667696E-1,5.080573E-1,1.555933E0,2.1832852E0,-1.2358583E0,-7.6529557E-1,2.3931013E-1,7.4835676E-1,1.2884012E0,1.6998204E0,2.0488622E0,2.4846716E0,-3.179663E-2,-2.5790764E-2,-8.583259E-1,-5.974668E-1,-1.0362191E-1,2.7640942E-1,1.4038807E-2,8.0104274E-1,1.1649019E0,1.3812226E0,3.721436E-2,1.763307E0,4.550189E-2,2.130998E0,5.493337E-2,6.1802432E-2,-2.1406427E-2,-1.8193984E-2,-1.5783032E-2,-1.1783787E-2,-4.6406765E-3,1.1981554E-4,5.369557E-3,1.0082166E-2,1.7664446E-2,2.0031465E-2,2.5196167E-2,2.8232167E-2,3.0739928E-2,3.3177663E-2,4.000643E-2,4.223259E-2,4.8481785E-2,5.1072177E-2],"categories":[],"categories_nodes":[],"categories_segments":[],"categories_sizes":[],"default_left":[0,0,0,0,0,0,0,0,0,0,0,0,0,0,0,0,0,0,0,0,0,0,0,0,0,0,0,0,0,0,0,0,0,0,0,0,0,0,0,0,0,0,0,0,0,0,0,0,0],"id":19,"left_children":[1,3,5,7,9,11,13,15,17,19,21,23,25,27,29,-1,-1,31,33,35,37,-1,39,41,43,-1,45,-1,47,-1,-1,-1,-1,-1,-1,-1,-1,-1,-1,-1,-1,-1,-1,-1,-1,-1,-1,-1,-1],"loss_changes":[4.071498E3,6.970245E2,1.00246094E3,2.475409E1,6.446527E1,2.4863965E2,1.6522656E2,1.7173767E0,3.9837494E0,6.059122E0,3.5414124E0,2.4561768E1,2.3952148E1,1.7910156E1,2.1084473E1,0E0,0E0,1.4408875E-1,4.3737411E-1,4.91444E-1,2.960968E0,0E0,3.0618286E-1,2.6273193E0,1.6162109E0,0E0,2.7167969E0,0E0,3.173828E-2,0E0,0E0,0E0,0E0,0E0,0E0,0E0,0E0,0E0,0E0,0E0,0E0,0E0,0E0,0E0,0E0,0E0,0E0,0E0,0E0],"parents":[2147483647,0,0,1,1,2,2,3,3,4,4,5,5,6,6,7,7,8,8,9,9,10,10,11,11,12,12,13,13,14,14,17,17,18,18,19,19,20,20,22,22,23,23,24,24,26,26,28,28],"right_children":[2,4,6,8,10,12,14,16,18,20,22,24,26,28,30,-1,-1,32,34,36,38,-1,40,42,44,-1,46,-1,48,-1,-1,-1,-1,-1,-1,-1,-1,-1,-1,-1,-1,-1,-1,-1,-1,-1,-1,-1,-1],"split_conditions":[9.516579E-1,-3.5667494E-1,1.8687205E0,-9.9425226E-1,5.187938E-1,1.4951488E0,2.2679937E0,-1.2378744E0,-7.133499E-1,8.61777E-2,7.030975E-1,1.2753628E0,1.6826884E0,2.0425181E0,2.508786E0,-3.179663E-2,-2.5790764E-2,-8.4397006E-1,-6.1618614E-1,-1.3387081E-2,3.6464313E-1,1.4038807E-2,8.197798E-1,1.1474024E0,1.3737155E0,3.721436E-2,1.7715567E0,4.550189E-2,2.1435893E0,5.493337E-2,6.1802432E-2,-2.1406427E-2,-1.8193984E-2,-1.5783032E-2,-1.1783787E-2,-4.6406765E-3,1.1981554E-4,5.369557E-3,1.0082166E-2,1.7664446E-2,2.0031465E-2,2.5196167E-2,2.8232167E-2,3.0739928E-2,3.3177663E-2,4.000643E-2,4.223259E-2,4.8481785E-2,5.1072177E-2],"split_indices":[0,0,5,5,5,5,5,5,5,0,5,5,5,5,0,0,0,5,5,6,5,0,5,5,5,0,5,0,5,0,0,0,0,0,0,0,0,0,0,0,0,0,0,0,0,0,0,0,0],"split_type":[0,0,0,0,0,0,0,0,0,0,0,0,0,0,0,0,0,0,0,0,0,0,0,0,0,0,0,0,0,0,0,0,0,0,0,0,0,0,0,0,0,0,0,0,0,0,0,0,0],"sum_hessian":[1.2198E4,1.48E3,1.0718E4,4.8E2,1E3,6.515E3,4.203E3,1.93E2,2.87E2,4.73E2,5.27E2,2.282E3,4.233E3,2.912E3,1.291E3,9E1,1.03E2,1.82E2,1.05E2,4.6E1,4.27E2,1.44E2,3.83E2,9.85E2,1.297E3,1.658E3,2.575E3,1.383E3,1.529E3,7.64E2,5.27E2,9.4E1,8.8E1,5.2E1,5.3E1,2.4E1,2.2E1,3.33E2,9.4E1,2.35E2,1.48E2,3.79E2,6.06E2,5.75E2,7.22E2,1.436E3,1.139E3,9.13E2,6.16E2],"tree_param":{"num_deleted":"0","num_feature":"11","num_nodes":"49","size_leaf_vector":"1"}},{"base_weights":[1.5874575E0,3.1306338E-2,1.8019861E0,-9.5667696E-1,5.069707E-1,1.555778E0,2.1832852E0,-1.1898144E0,-7.3830473E-1,2.4068698E-1,7.4500716E-1,1.2881933E0,1.6998204E0,2.0488622E0,2.4846716E0,-3.0254444E-2,-2.3206837E-2,-7.977401E-1,-5.0670284E-1,-1.0137814E-1,2.7866453E-1,5.975696E-1,7.999371E-1,1.1646708E0,1.3812226E0,3.7130952E-2,1.7600961E0,4.550189E-2,4.9558092E-2,5.492293E-2,6.1817557E-2,-2.0122565E-2,-1.6778367E-2,-1.2246114E-2,-7.594645E-3,-3.6133064E-3,1.3009793E-3,5.4526334E-3,1.0153162E-2,1.1992467E-2,1.4873854E-2,1.7439343E-2,1.9681374E-2,2.5192197E-2,2.8232167E-2,3.0879522E-2,3.325362E-2,3.9880425E-2,4.2166606E-2],"categories":[],"categories_nodes":[],"categories_segments":[],"categories_sizes":[],"default_left":[0,0,0,0,0,0,0,0,0,0,0,0,0,0,0,0,0,0,0,0,0,0,0,0,0,0,0,0,0,0,0,0,0,0,0,0,0,0,0,0,0,0,0,0,0,0,0,0,0],"id":20,"left_children":[1,3,5,7,9,11,13,15,17,19,21,23,25,27,29,-1,-1,31,33,35,37,39,41,43,45,-1,47,-1,-1,-1,-1,-1,-1,-1,-1,-1,-1,-1,-1,-1,-1,-1,-1,-1,-1,-1,-1,-1,-1],"loss_changes":[4.0724434E3,6.9553876E2,1.0030781E3,2.360962E1,6.3142548E1,2.4903711E2,1.6522656E2,3.628418E0,3.050888E0,6.1728954E0,3.7900085E0,2.4648682E1,2.352539E1,1.7910156E1,2.1287598E1,0E0,0E0,3.955307E-1,2.1410942E-2,4.1642082E-1,2.8712578E0,1.7586899E-1,2.4937439E-1,2.651123E0,1.4760742E0,0E0,3.2832031E0,0E0,0E0,0E0,0E0,0E0,0E0,0E0,0E0,0E0,0E0,0E0,0E0,0E0,0E0,0E0,0E0,0E0,0E0,0E0,0E0,0E0,0E0],"parents":[2147483647,0,0,1,1,2,2,3,3,4,4,5,5,6,6,7,7,8,8,9,9,10,10,11,11,12,12,13,13,14,14,17,17,18,18,19,19,20,20,21,21,22,22,23,23,24,24,26,26],"right_children":[2,4,6,8,10,12,14,16,18,20,22,24,26,28,30,-1,-1,32,34,36,38,40,42,44,46,-1,48,-1,-1,-1,-1,-1,-1,-1,-1,-1,-1,-1,-1,-1,-1,-1,-1,-1,-1,-1,-1,-1,-1],"split_conditions":[9.477894E-1,-3.5667494E-1,1.8687205E0,-9.1629076E-1,5.187938E-1,1.4951488E0,2.2679937E0,-1.1086626E0,-6.1618614E-1,8.61777E-2,7.030975E-1,1.2753628E0,1.6770966E0,2.0425181E0,2.508786E0,-3.0254444E-2,-2.3206837E-2,-7.765288E-1,-3.7106368E-1,8.61777E-2,3.7156355E-1,5.877867E-1,8.020016E-1,1.1474024E0,1.3837912E0,3.7130952E-2,1.7664417E0,4.550189E-2,4.9558092E-2,5.492293E-2,6.1817557E-2,-2.0122565E-2,-1.6778367E-2,-1.2246114E-2,-7.594645E-3,-3.6133064E-3,1.3009793E-3,5.4526334E-3,1.0153162E-2,1.1992467E-2,1.4873854E-2,1.7439343E-2,1.9681374E-2,2.5192197E-2,2.8232167E-2,3.0879522E-2,3.325362E-2,3.9880425E-2,4.2166606E-2],"split_indices":[5,0,5,1,0,5,5,5,5,5,5,5,1,5,5,0,0,1,5,2,0,5,5,5,1,0,5,0,0,0,0,0,0,0,0,0,0,0,0,0,0,0,0,0,0,0,0,0,0],"split_type":[0,0,0,0,0,0,0,0,0,0,0,0,0,0,0,0,0,0,0,0,0,0,0,0,0,0,0,0,0,0,0,0,0,0,0,0,0,0,0,0,0,0,0,0,0,0,0,0,0],"sum_hessian":[1.2198E4,1.478E3,1.072E4,4.8E2,9.98E2,6.517E3,4.203E3,2.3E2,2.5E2,4.72E2,5.26E2,2.284E3,4.233E3,2.912E3,1.291E3,1.42E2,8.8E1,1.97E2,5.3E1,4.7E1,4.25E2,1.46E2,3.8E2,9.87E2,1.297E3,1.571E3,2.662E3,1.383E3,1.529E3,7.64E2,5.27E2,9.9E1,9.8E1,4.6E1,7E0,3.5E1,1.2E1,3.34E2,9.1E1,5.4E1,9.2E1,1.91E2,1.89E2,3.81E2,6.06E2,6.32E2,6.65E2,1.455E3,1.207E3],"tree_param":{"num_deleted":"0","num_feature":"11","num_nodes":"49","size_leaf_vector":"1"}},{"base_weights":[1.5874575E0,3.1306338E-2,1.8019861E0,-9.5667696E-1,5.069707E-1,1.555778E0,2.1832852E0,-1.2358583E0,-7.6529557E-1,2.4184489E-1,7.430169E-1,1.2881933E0,1.6998204E0,2.0488622E0,2.4846716E0,-3.179663E-2,-2.5790764E-2,-8.583259E-1,-5.974668E-1,-1.0137814E-1,2.8003985E-1,5.921813E-1,8.00205E-1,1.1646708E0,1.3812226E0,3.721436E-2,1.763307E0,4.550189E-2,2.130998E0,5.492293E-2,6.1817557E-2,-2.1406427E-2,-1.8193984E-2,-1.5783032E-2,-1.1783787E-2,-3.6133064E-3,1.3009793E-3,5.4526334E-3,1.0342897E-2,1.1816856E-2,1.4887721E-2,1.773013E-2,1.9867966E-2,2.5192197E-2,2.8232167E-2,3.0754194E-2,3.3166293E-2,4.000643E-2,4.223259E-2,4.8481785E-2,5.1072177E-2],"categories":[],"categories_nodes":[],"categories_segments":[],"categories_sizes":[],"default_left":[0,0,0,0,0,0,0,0,0,0,0,0,0,0,0,0,0,0,0,0,0,0,0,0,0,0,0,0,0,0,0,0,0,0,0,0,0,0,0,0,0,0,0,0,0,0,0,0,0,0,0],"id":21,"left_children":[1,3,5,7,9,11,13,15,17,19,21,23,25,27,29,-1,-1,31,33,35,37,39,41,43,45,-1,47,-1,49,-1,-1,-1,-1,-1,-1,-1,-1,-1,-1,-1,-1,-1,-1,-1,-1,-1,-1,-1,-1,-1,-1],"loss_changes":[4.0724434E3,6.9553876E2,1.0030781E3,2.475409E1,6.233966E1,2.4903711E2,1.6522656E2,1.7173767E0,3.9837494E0,6.2160225E0,4.0806885E0,2.4648682E1,2.3952148E1,1.7910156E1,2.1287598E1,0E0,0E0,1.4408875E-1,4.3737411E-1,4.1642082E-1,3.0860634E0,2.7576447E-1,1.2619019E-1,2.651123E0,1.5427246E0,0E0,2.7167969E0,0E0,3.173828E-2,0E0,0E0,0E0,0E0,0E0,0E0,0E0,0E0,0E0,0E0,0E0,0E0,0E0,0E0,0E0,0E0,0E0,0E0,0E0,0E0,0E0,0E0],"parents":[2147483647,0,0,1,1,2,2,3,3,4,4,5,5,6,6,7,7,8,8,9,9,10,10,11,11,12,12,13,13,14,14,17,17,18,18,19,19,20,20,21,21,22,22,23,23,24,24,26,26,28,28],"right_children":[2,4,6,8,10,12,14,16,18,20,22,24,26,28,30,-1,-1,32,34,36,38,40,42,44,46,-1,48,-1,50,-1,-1,-1,-1,-1,-1,-1,-1,-1,-1,-1,-1,-1,-1,-1,-1,-1,-1,-1,-1,-1,-1],"split_conditions":[9.477894E-1,-3.5667494E-1,1.8687205E0,-9.9425226E-1,5.187938E-1,1.4951488E0,2.2679937E0,-1.2378744E0,-7.133499E-1,8.61777E-2,7.030975E-1,1.2753628E0,1.6826884E0,2.0425181E0,2.508786E0,-3.179663E-2,-2.5790764E-2,-8.4397006E-1,-6.1618614E-1,8.61777E-2,3.7156355E-1,5.877867E-1,8.197798E-1,1.1474024E0,1.3737155E0,3.721436E-2,1.7715567E0,4.550189E-2,2.1435893E0,5.492293E-2,6.1817557E-2,-2.1406427E-2,-1.8193984E-2,-1.5783032E-2,-1.1783787E-2,-3.6133064E-3,1.3009793E-3,5.4526334E-3,1.0342897E-2,1.1816856E-2,1.4887721E-2,1.773013E-2,1.9867966E-2,2.5192197E-2,2.8232167E-2,3.0754194E-2,3.3166293E-2,4.000643E-2,4.223259E-2,4.8481785E-2,5.1072177E-2],"split_indices":[5,0,5,5,1,5,5,5,5,5,5,5,5,5,5,0,0,5,5,2,0,5,0,5,0,0,5,0,5,0,0,0,0,0,0,0,0,0,0,0,0,0,0,0,0,0,0,0,0,0,0],"split_type":[0,0,0,0,0,0,0,0,0,0,0,0,0,0,0,0,0,0,0,0,0,0,0,0,0,0,0,0,0,0,0,0,0,0,0,0,0,0,0,0,0,0,0,0,0,0,0,0,0,0,0],"sum_hessian":[1.2198E4,1.478E3,1.072E4,4.8E2,9.98E2,6.517E3,4.203E3,1.93E2,2.87E2,4.71E2,5.27E2,2.284E3,4.233E3,2.912E3,1.291E3,9E1,1.03E2,1.82E2,1.05E2,4.7E1,4.24E2,1.48E2,3.79E2,9.87E2,1.297E3,1.658E3,2.575E3,1.383E3,1.529E3,7.64E2,5.27E2,9.4E1,8.8E1,5.2E1,5.3E1,3.5E1,1.2E1,3.34E2,9E1,5.8E1,9E1,2.32E2,1.47E2,3.81E2,6.06E2,5.75E2,7.22E2,1.436E3,1.139E3,9.13E2,6.16E2],"tree_param":{"num_deleted":"0","num_feature":"11","num_nodes":"51","size_leaf_vector":"1"}},{"base_weights":[1.5874575E0,3.1306338E-2,1.8019861E0,-9.5667696E-1,5.069707E-1,1.555778E0,2.1832852E0,-1.2358583E0,-7.6529557E-1,2.4068698E-1,7.4500716E-1,1.2886767E0,1.6995596E0,2.0488622E0,2.4846716E0,-3.179663E-2,-2.5790764E-2,-8.583259E-1,-5.974668E-1,-1.0137814E-1,2.7866453E-1,5.996758E-1,7.9808295E-1,1.1646708E0,1.3820736E0,3.7104454E-2,1.7603539E0,4.550189E-2,2.130998E0,5.492293E-2,6.1817557E-2,-2.1406427E-2,-1.8193984E-2,-1.5783032E-2,-1.1783787E-2,-3.6450424E-3,1.0292991E-3,5.385397E-3,1.0291338E-2,1.198099E-2,1.4947707E-2,1.7366214E-2,1.9681374E-2,2.5192197E-2,2.8232167E-2,3.0739928E-2,3.3213194E-2,3.989139E-2,4.2166606E-2,4.8481785E-2,5.1072177E-2],"categories":[],"categories_nodes":[],"categories_segments":[],"categories_sizes":[],"default_left":[0,0,0,0,0,0,0,0,0,0,0,0,0,0,0,0,0,0,0,0,0,0,0,0,0,0,0,0,0,0,0,0,0,0,0,0,0,0,0,0,0,0,0,0,0,0,0,0,0,0,0],"id":22,"left_children":[1,3,5,7,9,11,13,15,17,19,21,23,25,27,29,-1,-1,31,33,35,37,39,41,43,45,-1,47,-1,49,-1,-1,-1,-1,-1,-1,-1,-1,-1,-1,-1,-1,-1,-1,-1,-1,-1,-1,-1,-1,-1,-1],"loss_changes":[4.0724434E3,6.9553876E2,1.0030781E3,2.475409E1,6.3142548E1,2.481289E2,1.6522656E2,1.7173767E0,3.9837494E0,6.1728954E0,3.5864563E0,2.485498E1,2.3978516E1,1.7910156E1,2.1287598E1,0E0,0E0,1.4408875E-1,4.3737411E-1,3.939289E-1,3.1848412E0,1.966095E-1,3.1604004E-1,2.651123E0,1.7172852E0,0E0,3.2216797E0,0E0,3.173828E-2,0E0,0E0,0E0,0E0,0E0,0E0,0E0,0E0,0E0,0E0,0E0,0E0,0E0,0E0,0E0,0E0,0E0,0E0,0E0,0E0,0E0,0E0],"parents":[2147483647,0,0,1,1,2,2,3,3,4,4,5,5,6,6,7,7,8,8,9,9,10,10,11,11,12,12,13,13,14,14,17,17,18,18,19,19,20,20,21,21,22,22,23,23,24,24,26,26,28,28],"right_children":[2,4,6,8,10,12,14,16,18,20,22,24,26,28,30,-1,-1,32,34,36,38,40,42,44,46,-1,48,-1,50,-1,-1,-1,-1,-1,-1,-1,-1,-1,-1,-1,-1,-1,-1,-1,-1,-1,-1,-1,-1,-1,-1],"split_conditions":[9.477894E-1,-3.5667494E-1,1.8687205E0,-9.9425226E-1,5.187938E-1,1.4951488E0,2.2679937E0,-1.2378744E0,-7.133499E-1,8.61777E-2,7.030975E-1,1.2753628E0,1.6770966E0,2.0425181E0,2.508786E0,-3.179663E-2,-2.5790764E-2,-8.4397006E-1,-6.1618614E-1,8.61777E-2,3.6464313E-1,5.877867E-1,8.020016E-1,1.1474024E0,1.3737155E0,3.7104454E-2,1.7664417E0,4.550189E-2,2.1435893E0,5.492293E-2,6.1817557E-2,-2.1406427E-2,-1.8193984E-2,-1.5783032E-2,-1.1783787E-2,-3.6450424E-3,1.0292991E-3,5.385397E-3,1.0291338E-2,1.198099E-2,1.4947707E-2,1.7366214E-2,1.9681374E-2,2.5192197E-2,2.8232167E-2,3.0739928E-2,3.3213194E-2,3.989139E-2,4.2166606E-2,4.8481785E-2,5.1072177E-2],"split_indices":[5,0,5,5,0,1,5,5,5,5,0,5,0,5,5,0,0,5,5,3,5,5,5,5,5,0,5,0,5,0,0,0,0,0,0,0,0,0,0,0,0,0,0,0,0,0,0,0,0,0,0],"split_type":[0,0,0,0,0,0,0,0,0,0,0,0,0,0,0,0,0,0,0,0,0,0,0,0,0,0,0,0,0,0,0,0,0,0,0,0,0,0,0,0,0,0,0,0,0,0,0,0,0,0,0],"sum_hessian":[1.2198E4,1.478E3,1.072E4,4.8E2,9.98E2,6.517E3,4.203E3,1.93E2,2.87E2,4.72E2,5.26E2,2.284E3,4.233E3,2.912E3,1.291E3,9E1,1.03E2,1.82E2,1.05E2,4.7E1,4.25E2,1.44E2,3.82E2,9.87E2,1.297E3,1.571E3,2.662E3,1.383E3,1.529E3,7.64E2,5.27E2,9.4E1,8.8E1,5.2E1,5.3E1,3.4E1,1.3E1,3.32E2,9.3E1,5.3E1,9.1E1,1.93E2,1.89E2,3.81E2,6.06E2,5.75E2,7.22E2,1.455E3,1.207E3,9.13E2,6.16E2],"tree_param":{"num_deleted":"0","num_feature":"11","num_nodes":"51","size_leaf_vector":"1"}},{"base_weights":[1.5874575E0,3.268314E-2,1.8021262E0,-9.5667696E-1,5.080573E-1,1.555933E0,2.1832852E0,-1.2358583E0,-7.6529557E-1,2.3931013E-1,7.4835676E-1,1.2886428E0,1.6996902E0,2.0488622E0,2.4846716E0,-3.179663E-2,-2.5790764E-2,-8.583259E-1,-5.974668E-1,-1.0137814E-1,2.770472E-1,6.036687E-1,8.0104274E-1,1.1652111E0,1.3814124E0,3.7112642E-2,1.7603539E0,4.550189E-2,4.9558092E-2,5.493337E-2,6.1802432E-2,-2.1406427E-2,-1.8193984E-2,-1.556938E-2,-1.2058502E-2,-3.6133064E-3,1.3009793E-3,5.385397E-3,1.0082166E-2,1.2270229E-2,1.486782E-2,1.776687E-2,1.9841392E-2,2.5196167E-2,2.8243849E-2,3.072762E-2,3.319539E-2,3.9955597E-2,4.2216487E-2],"categories":[],"categories_nodes":[],"categories_segments":[],"categories_sizes":[],"default_left":[0,0,0,0,0,0,0,0,0,0,0,0,0,0,0,0,0,0,0,0,0,0,0,0,0,0,0,0,0,0,0,0,0,0,0,0,0,0,0,0,0,0,0,0,0,0,0,0,0],"id":23,"left_children":[1,3,5,7,9,11,13,15,17,19,21,23,25,27,29,-1,-1,31,33,35,37,39,41,43,45,-1,47,-1,-1,-1,-1,-1,-1,-1,-1,-1,-1,-1,-1,-1,-1,-1,-1,-1,-1,-1,-1,-1,-1],"loss_changes":[4.071498E3,6.970245E2,1.00246094E3,2.475409E1,6.446527E1,2.4818652E2,1.6522656E2,1.7173767E0,3.9837494E0,6.1221027E0,3.5414124E0,2.4532227E1,2.3863281E1,1.7910156E1,2.1084473E1,0E0,0E0,1.4408875E-1,2.55558E-1,4.1642082E-1,2.9382286E0,5.577469E-2,9.030151E-2,2.6573486E0,1.7028809E0,0E0,3.0664062E0,0E0,0E0,0E0,0E0,0E0,0E0,0E0,0E0,0E0,0E0,0E0,0E0,0E0,0E0,0E0,0E0,0E0,0E0,0E0,0E0,0E0,0E0],"parents":[2147483647,0,0,1,1,2,2,3,3,4,4,5,5,6,6,7,7,8,8,9,9,10,10,11,11,12,12,13,13,14,14,17,17,18,18,19,19,20,20,21,21,22,22,23,23,24,24,26,26],"right_children":[2,4,6,8,10,12,14,16,18,20,22,24,26,28,30,-1,-1,32,34,36,38,40,42,44,46,-1,48,-1,-1,-1,-1,-1,-1,-1,-1,-1,-1,-1,-1,-1,-1,-1,-1,-1,-1,-1,-1,-1,-1],"split_conditions":[9.516579E-1,-3.5667494E-1,1.8687205E0,-9.9425226E-1,5.187938E-1,1.4951488E0,2.2679937E0,-1.2378744E0,-7.133499E-1,8.61777E-2,7.030975E-1,1.2753628E0,1.6770966E0,2.0425181E0,2.508786E0,-3.179663E-2,-2.5790764E-2,-8.4397006E-1,-6.1618614E-1,8.61777E-2,3.6464313E-1,5.877867E-1,8.197798E-1,1.1474024E0,1.3737155E0,3.7112642E-2,1.7715567E0,4.550189E-2,4.9558092E-2,5.493337E-2,6.1802432E-2,-2.1406427E-2,-1.8193984E-2,-1.556938E-2,-1.2058502E-2,-3.6133064E-3,1.3009793E-3,5.385397E-3,1.0082166E-2,1.2270229E-2,1.486782E-2,1.776687E-2,1.9841392E-2,2.5196167E-2,2.8243849E-2,3.072762E-2,3.319539E-2,3.9955597E-2,4.2216487E-2],"split_indices":[0,0,5,5,5,0,5,5,5,5,5,0,0,5,0,0,0,5,0,2,5,5,1,5,5,0,0,0,0,0,0,0,0,0,0,0,0,0,0,0,0,0,0,0,0,0,0,0,0],"split_type":[0,0,0,0,0,0,0,0,0,0,0,0,0,0,0,0,0,0,0,0,0,0,0,0,0,0,0,0,0,0,0,0,0,0,0,0,0,0,0,0,0,0,0,0,0,0,0,0,0],"sum_hessian":[1.2198E4,1.48E3,1.0718E4,4.8E2,1E3,6.515E3,4.203E3,1.93E2,2.87E2,4.73E2,5.27E2,2.282E3,4.233E3,2.912E3,1.291E3,9E1,1.03E2,1.82E2,1.05E2,4.7E1,4.26E2,1.44E2,3.83E2,9.85E2,1.297E3,1.571E3,2.662E3,1.383E3,1.529E3,7.64E2,5.27E2,9.4E1,8.8E1,5.1E1,5.4E1,3.5E1,1.2E1,3.32E2,9.4E1,5.1E1,9.3E1,2.33E2,1.5E2,3.79E2,6.06E2,5.75E2,7.22E2,1.523E3,1.139E3],"tree_param":{"num_deleted":"0","num_feature":"11","num_nodes":"49","size_leaf_vector":"1"}},{"base_weights":[1.5874575E0,3.268314E-2,1.8021262E0,-9.5667696E-1,5.080573E-1,1.555933E0,2.1832852E0,-1.2358583E0,-7.6529557E-1,2.3931013E-1,7.4835676E-1,1.2888851E0,1.6995596E0,2.0490074E0,2.4843442E0,-3.179663E-2,-2.5790764E-2,-8.583259E-1,-5.974668E-1,-1.0362191E-1,2.7640942E-1,6.036687E-1,8.0104274E-1,1.1649019E0,1.3820736E0,3.7131965E-2,1.7615125E0,4.539369E-2,2.124222E0,5.491007E-2,6.1817557E-2,-2.1406427E-2,-1.8193984E-2,-1.5783032E-2,-1.1783787E-2,-4.6406765E-3,1.1981554E-4,5.369557E-3,1.0082166E-2,1.2270229E-2,1.486782E-2,1.7719842E-2,1.9928897E-2,2.5196167E-2,2.8232167E-2,3.0739928E-2,3.3213194E-2,3.9983347E-2,4.2216487E-2,4.818338E-2,5.089451E-2],"categories":[],"categories_nodes":[],"categories_segments":[],"categories_sizes":[],"default_left":[0,0,0,0,0,0,0,0,0,0,0,0,0,0,0,0,0,0,0,0,0,0,0,0,0,0,0,0,0,0,0,0,0,0,0,0,0,0,0,0,0,0,0,0,0,0,0,0,0,0,0],"id":24,"left_children":[1,3,5,7,9,11,13,15,17,19,21,23,25,27,29,-1,-1,31,33,35,37,39,41,43,45,-1,47,-1,49,-1,-1,-1,-1,-1,-1,-1,-1,-1,-1,-1,-1,-1,-1,-1,-1,-1,-1,-1,-1,-1,-1],"loss_changes":[4.071498E3,6.970245E2,1.00246094E3,2.475409E1,6.446527E1,2.4773145E2,1.6485742E2,1.7173767E0,3.9837494E0,6.059122E0,3.5414124E0,2.4767334E1,2.4175781E1,1.7125E1,2.1392578E1,0E0,0E0,1.4408875E-1,4.3737411E-1,4.91444E-1,2.960968E0,5.577469E-2,1.8611145E-1,2.6273193E0,1.7172852E0,0E0,2.8598633E0,0E0,9.458008E-1,0E0,0E0,0E0,0E0,0E0,0E0,0E0,0E0,0E0,0E0,0E0,0E0,0E0,0E0,0E0,0E0,0E0,0E0,0E0,0E0,0E0,0E0],"parents":[2147483647,0,0,1,1,2,2,3,3,4,4,5,5,6,6,7,7,8,8,9,9,10,10,11,11,12,12,13,13,14,14,17,17,18,18,19,19,20,20,21,21,22,22,23,23,24,24,26,26,28,28],"right_children":[2,4,6,8,10,12,14,16,18,20,22,24,26,28,30,-1,-1,32,34,36,38,40,42,44,46,-1,48,-1,50,-1,-1,-1,-1,-1,-1,-1,-1,-1,-1,-1,-1,-1,-1,-1,-1,-1,-1,-1,-1,-1,-1],"split_conditions":[9.516579E-1,-3.5667494E-1,1.8687205E0,-9.9425226E-1,5.187938E-1,1.4951488E0,2.2679937E0,-1.2378744E0,-7.133499E-1,8.61777E-2,7.030975E-1,1.2753628E0,1.678964E0,2.0320878E0,2.508786E0,-3.179663E-2,-2.5790764E-2,-8.4397006E-1,-6.1618614E-1,-1.3387081E-2,3.6464313E-1,5.877867E-1,8.197798E-1,1.1474024E0,1.3737155E0,3.7131965E-2,1.7715567E0,4.539369E-2,2.1294215E0,5.491007E-2,6.1817557E-2,-2.1406427E-2,-1.8193984E-2,-1.5783032E-2,-1.1783787E-2,-4.6406765E-3,1.1981554E-4,5.369557E-3,1.0082166E-2,1.2270229E-2,1.486782E-2,1.7719842E-2,1.9928897E-2,2.5196167E-2,2.8232167E-2,3.0739928E-2,3.3213194E-2,3.9983347E-2,4.2216487E-2,4.818338E-2,5.089451E-2],"split_indices":[0,0,5,5,5,1,0,5,5,0,5,5,5,2,5,0,0,5,5,6,5,5,0,5,5,0,0,0,5,0,0,0,0,0,0,0,0,0,0,0,0,0,0,0,0,0,0,0,0,0,0],"split_type":[0,0,0,0,0,0,0,0,0,0,0,0,0,0,0,0,0,0,0,0,0,0,0,0,0,0,0,0,0,0,0,0,0,0,0,0,0,0,0,0,0,0,0,0,0,0,0,0,0,0,0],"sum_hessian":[1.2198E4,1.48E3,1.0718E4,4.8E2,1E3,6.515E3,4.203E3,1.93E2,2.87E2,4.73E2,5.27E2,2.282E3,4.233E3,2.912E3,1.291E3,9E1,1.03E2,1.82E2,1.05E2,4.6E1,4.27E2,1.44E2,3.83E2,9.85E2,1.297E3,1.601E3,2.632E3,1.283E3,1.629E3,7.64E2,5.27E2,9.4E1,8.8E1,5.2E1,5.3E1,2.4E1,2.2E1,3.33E2,9.4E1,5.1E1,9.3E1,2.34E2,1.49E2,3.79E2,6.06E2,5.75E2,7.22E2,1.493E3,1.139E3,9.16E2,7.13E2],"tree_param":{"num_deleted":"0","num_feature":"11","num_nodes":"51","size_leaf_vector":"1"}},{"base_weights":[1.5874575E0,3.268314E-2,1.8021262E0,-9.5667696E-1,5.080573E-1,1.555933E0,2.1832852E0,-1.1908584E0,-7.3552996E-1,2.3931013E-1,7.4835676E-1,1.2884012E0,1.6998204E0,2.0488622E0,2.4846716E0,-3.179663E-2,-2.4870442E-2,-7.9452044E-1,-5.0670284E-1,-1.0137814E-1,2.770472E-1,1.4038807E-2,8.0104274E-1,1.1649019E0,1.3812226E0,3.7120797E-2,1.7603539E0,4.5637295E-2,4.966183E-2,5.492293E-2,6.1817557E-2,-2.006997E-2,-1.6555846E-2,-1.2246114E-2,-7.594645E-3,-3.6133064E-3,1.3009793E-3,5.385397E-3,1.0082166E-2,1.7664446E-2,2.0031465E-2,2.5196167E-2,2.8232167E-2,3.0739928E-2,3.3177663E-2,3.9955597E-2,4.2216487E-2],"categories":[],"categories_nodes":[],"categories_segments":[],"categories_sizes":[],"default_left":[0,0,0,0,0,0,0,0,0,0,0,0,0,0,0,0,0,0,0,0,0,0,0,0,0,0,0,0,0,0,0,0,0,0,0,0,0,0,0,0,0,0,0,0,0,0,0],"id":25,"left_children":[1,3,5,7,9,11,13,15,17,19,21,23,25,27,29,-1,-1,31,33,35,37,-1,39,41,43,-1,45,-1,-1,-1,-1,-1,-1,-1,-1,-1,-1,-1,-1,-1,-1,-1,-1,-1,-1,-1,-1],"loss_changes":[4.071498E3,6.970245E2,1.00246094E3,2.4034363E1,6.446527E1,2.4863965E2,1.6522656E2,3.5072021E0,2.9720612E0,6.1221027E0,3.5414124E0,2.4561768E1,2.3749023E1,1.761914E1,2.1287598E1,0E0,0E0,5.003433E-1,2.1410942E-2,4.1642082E-1,2.9382286E0,0E0,3.0618286E-1,2.6273193E0,1.6162109E0,0E0,3.0664062E0,0E0,0E0,0E0,0E0,0E0,0E0,0E0,0E0,0E0,0E0,0E0,0E0,0E0,0E0,0E0,0E0,0E0,0E0,0E0,0E0],"parents":[2147483647,0,0,1,1,2,2,3,3,4,4,5,5,6,6,7,7,8,8,9,9,10,10,11,11,12,12,13,13,14,14,17,17,18,18,19,19,20,20,22,22,23,23,24,24,26,26],"right_children":[2,4,6,8,10,12,14,16,18,20,22,24,26,28,30,-1,-1,32,34,36,38,-1,40,42,44,-1,46,-1,-1,-1,-1,-1,-1,-1,-1,-1,-1,-1,-1,-1,-1,-1,-1,-1,-1,-1,-1],"split_conditions":[9.516579E-1,-3.5667494E-1,1.8687205E0,-9.1629076E-1,5.187938E-1,1.4951488E0,2.2679937E0,-1.2378744E0,-6.1618614E-1,8.61777E-2,7.030975E-1,1.2753628E0,1.6770966E0,2.05027E0,2.508786E0,-3.179663E-2,-2.4870442E-2,-7.765288E-1,-3.7106368E-1,8.61777E-2,3.6464313E-1,1.4038807E-2,8.197798E-1,1.1474024E0,1.3737155E0,3.7120797E-2,1.7715567E0,4.5637295E-2,4.966183E-2,5.492293E-2,6.1817557E-2,-2.006997E-2,-1.6555846E-2,-1.2246114E-2,-7.594645E-3,-3.6133064E-3,1.3009793E-3,5.385397E-3,1.0082166E-2,1.7664446E-2,2.0031465E-2,2.5196167E-2,2.8232167E-2,3.0739928E-2,3.3177663E-2,3.9955597E-2,4.2216487E-2],"split_indices":[0,0,5,0,5,5,5,5,5,5,5,5,0,0,5,0,0,5,5,2,5,0,5,5,5,0,0,0,0,0,0,0,0,0,0,0,0,0,0,0,0,0,0,0,0,0,0],"split_type":[0,0,0,0,0,0,0,0,0,0,0,0,0,0,0,0,0,0,0,0,0,0,0,0,0,0,0,0,0,0,0,0,0,0,0,0,0,0,0,0,0,0,0,0,0,0,0],"sum_hessian":[1.2198E4,1.48E3,1.0718E4,4.8E2,1E3,6.515E3,4.203E3,2.31E2,2.49E2,4.73E2,5.27E2,2.282E3,4.233E3,2.912E3,1.291E3,9E1,1.41E2,1.96E2,5.3E1,4.7E1,4.26E2,1.44E2,3.83E2,9.85E2,1.297E3,1.571E3,2.662E3,1.469E3,1.443E3,7.64E2,5.27E2,1.02E2,9.4E1,4.6E1,7E0,3.5E1,1.2E1,3.32E2,9.4E1,2.35E2,1.48E2,3.79E2,6.06E2,5.75E2,7.22E2,1.523E3,1.139E3],"tree_param":{"num_deleted":"0","num_feature":"11","num_nodes":"47","size_leaf_vector":"1"}},{"base_weights":[1.5874575E0,3.268314E-2,1.8021262E0,-9.6092564E-1,5.057034E-1,1.555933E0,2.1832852E0,-1.1898144E0,-7.438521E-1,2.3604578E-1,7.4835676E-1,1.2884012E0,1.6998204E0,2.0488622E0,2.4846716E0,-3.0254444E-2,-2.3206837E-2,-7.959195E-1,-1.2378885E-2,-1.1186899E-1,2.770472E-1,1.4038807E-2,8.0104274E-1,1.1652111E0,1.3809876E0,3.721436E-2,1.763307E0,4.550189E-2,4.9558092E-2,5.492293E-2,6.1817557E-2,-2.0197205E-2,-1.6445875E-2,-7.2799684E-3,-1.4257652E-3,5.385397E-3,1.0082166E-2,1.7719842E-2,1.9928897E-2,2.5212903E-2,2.8228404E-2,3.072762E-2,3.3177663E-2,4.000643E-2,4.223259E-2],"categories":[],"categories_nodes":[],"categories_segments":[],"categories_sizes":[],"default_left":[0,0,0,0,0,0,0,0,0,0,0,0,0,0,0,0,0,0,0,0,0,0,0,0,0,0,0,0,0,0,0,0,0,0,0,0,0,0,0,0,0,0,0,0,0],"id":26,"left_children":[1,3,5,7,9,11,13,15,17,19,21,23,25,27,29,-1,-1,31,-1,33,35,-1,37,39,41,-1,43,-1,-1,-1,-1,-1,-1,-1,-1,-1,-1,-1,-1,-1,-1,-1,-1,-1,-1],"loss_changes":[4.071498E3,6.965516E2,1.00246094E3,2.2864746E1,6.55184E1,2.4863965E2,1.6522656E2,3.628418E0,2.3081512E0,6.8353996E0,3.5414124E0,2.4429932E1,2.3952148E1,1.7910156E1,2.1287598E1,0E0,0E0,6.5441895E-1,0E0,4.9954748E-1,2.9382286E0,0E0,1.8611145E-1,2.5690918E0,1.6525879E0,0E0,2.7167969E0,0E0,0E0,0E0,0E0,0E0,0E0,0E0,0E0,0E0,0E0,0E0,0E0,0E0,0E0,0E0,0E0,0E0,0E0],"parents":[2147483647,0,0,1,1,2,2,3,3,4,4,5,5,6,6,7,7,8,8,9,9,10,10,11,11,12,12,13,13,14,14,17,17,19,19,20,20,22,22,23,23,24,24,26,26],"right_children":[2,4,6,8,10,12,14,16,18,20,22,24,26,28,30,-1,-1,32,-1,34,36,-1,38,40,42,-1,44,-1,-1,-1,-1,-1,-1,-1,-1,-1,-1,-1,-1,-1,-1,-1,-1,-1,-1],"split_conditions":[9.516579E-1,-3.7106368E-1,1.8687205E0,-9.1629076E-1,5.187938E-1,1.4951488E0,2.2679937E0,-1.1086626E0,-6.1618614E-1,8.61777E-2,7.030975E-1,1.2753628E0,1.6826884E0,2.0425181E0,2.508786E0,-3.0254444E-2,-2.3206837E-2,-7.765288E-1,-1.2378885E-2,-3.4249032E-1,3.6464313E-1,1.4038807E-2,8.197798E-1,1.1474024E0,1.3737155E0,3.721436E-2,1.7715567E0,4.550189E-2,4.9558092E-2,5.492293E-2,6.1817557E-2,-2.0197205E-2,-1.6445875E-2,-7.2799684E-3,-1.4257652E-3,5.385397E-3,1.0082166E-2,1.7719842E-2,1.9928897E-2,2.5212903E-2,2.8228404E-2,3.072762E-2,3.3177663E-2,4.000643E-2,4.223259E-2],"split_indices":[0,5,5,1,5,5,5,5,0,5,5,0,5,5,5,0,0,5,0,4,5,0,0,0,5,0,5,0,0,0,0,0,0,0,0,0,0,0,0,0,0,0,0,0,0],"split_type":[0,0,0,0,0,0,0,0,0,0,0,0,0,0,0,0,0,0,0,0,0,0,0,0,0,0,0,0,0,0,0,0,0,0,0,0,0,0,0,0,0,0,0,0,0],"sum_hessian":[1.2198E4,1.48E3,1.0718E4,4.77E2,1.003E3,6.515E3,4.203E3,2.3E2,2.47E2,4.76E2,5.27E2,2.282E3,4.233E3,2.912E3,1.291E3,1.42E2,8.8E1,1.96E2,5.1E1,5E1,4.26E2,1.44E2,3.83E2,9.85E2,1.297E3,1.658E3,2.575E3,1.383E3,1.529E3,7.64E2,5.27E2,1.03E2,9.3E1,9E0,4.1E1,3.32E2,9.4E1,2.34E2,1.49E2,3.78E2,6.07E2,5.75E2,7.22E2,1.436E3,1.139E3],"tree_param":{"num_deleted":"0","num_feature":"11","num_nodes":"45","size_leaf_vector":"1"}},{"base_weights":[1.5874575E0,3.268314E-2,1.8021262E0,-9.5667696E-1,5.080573E-1,1.555933E0,2.1832852E0,-1.2358583E0,-7.6529557E-1,2.3931013E-1,7.4835676E-1,1.2884012E0,1.6998204E0,2.0488622E0,2.4846716E0,-3.1421654E-2,-2.5616499E-2,-8.549857E-1,-6.055861E-1,-1.0137814E-1,2.770472E-1,6.036687E-1,8.0104274E-1,1.1649019E0,1.3812226E0,3.721436E-2,1.763307E0,4.550189E-2,4.9558092E-2,5.492293E-2,6.1817557E-2,-2.1277612E-2,-1.818743E-2,-1.6031204E-2,-1.1796366E-2,-3.6133064E-3,1.3009793E-3,5.385397E-3,1.0082166E-2,1.2270229E-2,1.486782E-2,1.7719842E-2,1.9928897E-2,2.5196167E-2,2.8232167E-2,3.0754194E-2,3.3166293E-2,4.0031694E-2,4.2200744E-2],"categories":[],"categories_nodes":[],"categories_segments":[],"categories_sizes":[],"default_left":[0,0,0,0,0,0,0,0,0,0,0,0,0,0,0,0,0,0,0,0,0,0,0,0,0,0,0,0,0,0,0,0,0,0,0,0,0,0,0,0,0,0,0,0,0,0,0,0,0],"id":27,"left_children":[1,3,5,7,9,11,13,15,17,19,21,23,25,27,29,-1,-1,31,33,35,37,39,41,43,45,-1,47,-1,-1,-1,-1,-1,-1,-1,-1,-1,-1,-1,-1,-1,-1,-1,-1,-1,-1,-1,-1,-1,-1],"loss_changes":[4.071498E3,6.970245E2,1.00246094E3,2.475409E1,6.446527E1,2.4863965E2,1.6522656E2,1.5161438E0,3.6076508E0,6.1221027E0,3.5414124E0,2.4561768E1,2.3952148E1,1.7910156E1,2.1287598E1,0E0,0E0,8.016968E-2,5.316658E-1,4.1642082E-1,2.9382286E0,5.577469E-2,1.8611145E-1,2.6273193E0,1.5427246E0,0E0,2.421875E0,0E0,0E0,0E0,0E0,0E0,0E0,0E0,0E0,0E0,0E0,0E0,0E0,0E0,0E0,0E0,0E0,0E0,0E0,0E0,0E0,0E0,0E0],"parents":[2147483647,0,0,1,1,2,2,3,3,4,4,5,5,6,6,7,7,8,8,9,9,10,10,11,11,12,12,13,13,14,14,17,17,18,18,19,19,20,20,21,21,22,22,23,23,24,24,26,26],"right_children":[2,4,6,8,10,12,14,16,18,20,22,24,26,28,30,-1,-1,32,34,36,38,40,42,44,46,-1,48,-1,-1,-1,-1,-1,-1,-1,-1,-1,-1,-1,-1,-1,-1,-1,-1,-1,-1,-1,-1,-1,-1],"split_conditions":[9.516579E-1,-3.5667494E-1,1.8687205E0,-9.9425226E-1,5.187938E-1,1.4951488E0,2.2679937E0,-1.2039728E0,-7.133499E-1,8.61777E-2,7.030975E-1,1.2753628E0,1.6826884E0,2.0425181E0,2.508786E0,-3.1421654E-2,-2.5616499E-2,-8.4397006E-1,-6.1618614E-1,8.61777E-2,3.6464313E-1,5.877867E-1,8.197798E-1,1.1474024E0,1.3737155E0,3.721436E-2,1.7715567E0,4.550189E-2,4.9558092E-2,5.492293E-2,6.1817557E-2,-2.1277612E-2,-1.818743E-2,-1.6031204E-2,-1.1796366E-2,-3.6133064E-3,1.3009793E-3,5.385397E-3,1.0082166E-2,1.2270229E-2,1.486782E-2,1.7719842E-2,1.9928897E-2,2.5196167E-2,2.8232167E-2,3.0754194E-2,3.3166293E-2,4.0031694E-2,4.2200744E-2],"split_indices":[0,0,5,5,5,5,5,0,0,5,5,5,5,5,5,0,0,0,5,2,5,5,0,5,0,0,1,0,0,0,0,0,0,0,0,0,0,0,0,0,0,0,0,0,0,0,0,0,0],"split_type":[0,0,0,0,0,0,0,0,0,0,0,0,0,0,0,0,0,0,0,0,0,0,0,0,0,0,0,0,0,0,0,0,0,0,0,0,0,0,0,0,0,0,0,0,0,0,0,0,0],"sum_hessian":[1.2198E4,1.48E3,1.0718E4,4.8E2,1E3,6.515E3,4.203E3,1.93E2,2.87E2,4.73E2,5.27E2,2.282E3,4.233E3,2.912E3,1.291E3,9.9E1,9.4E1,1.81E2,1.06E2,4.7E1,4.26E2,1.44E2,3.83E2,9.85E2,1.297E3,1.658E3,2.575E3,1.383E3,1.529E3,7.64E2,5.27E2,9.3E1,8.8E1,5.4E1,5.2E1,3.5E1,1.2E1,3.32E2,9.4E1,5.1E1,9.3E1,2.34E2,1.49E2,3.79E2,6.06E2,5.75E2,7.22E2,1.436E3,1.139E3],"tree_param":{"num_deleted":"0","num_feature":"11","num_nodes":"49","size_leaf_vector":"1"}},{"base_weights":[1.5874575E0,3.1306338E-2,1.8019861E0,-9.5667696E-1,5.069707E-1,1.555778E0,2.1832852E0,-1.2358583E0,-7.6529557E-1,2.4184489E-1,7.430169E-1,1.2881933E0,1.6998204E0,2.0488622E0,2.4846716E0,-3.1347107E-2,-2.5753845E-2,-8.549857E-1,-6.055861E-1,-1.0362191E-1,2.7939206E-1,5.921813E-1,8.00205E-1,1.1646708E0,1.3812226E0,3.721436E-2,1.763307E0,4.550189E-2,2.130998E0,5.492293E-2,6.1817557E-2,-2.1406427E-2,-1.8013252E-2,-1.6031204E-2,-1.1796366E-2,-4.4228155E-3,-2.963994E-4,5.3712246E-3,1.0418221E-2,1.1816856E-2,1.4887721E-2,1.7674215E-2,1.9971514E-2,2.5192197E-2,2.8232167E-2,3.0739928E-2,3.3177663E-2,4.000643E-2,4.223259E-2,4.8481785E-2,5.1072177E-2],"categories":[],"categories_nodes":[],"categories_segments":[],"categories_sizes":[],"default_left":[0,0,0,0,0,0,0,0,0,0,0,0,0,0,0,0,0,0,0,0,0,0,0,0,0,0,0,0,0,0,0,0,0,0,0,0,0,0,0,0,0,0,0,0,0,0,0,0,0,0,0],"id":28,"left_children":[1,3,5,7,9,11,13,15,17,19,21,23,25,27,29,-1,-1,31,33,35,37,39,41,43,45,-1,47,-1,49,-1,-1,-1,-1,-1,-1,-1,-1,-1,-1,-1,-1,-1,-1,-1,-1,-1,-1,-1,-1,-1,-1],"loss_changes":[4.0724434E3,6.9553876E2,1.0030781E3,2.475409E1,6.233966E1,2.4903711E2,1.6522656E2,1.2997742E0,3.6076508E0,6.1514053E0,4.0806885E0,2.4648682E1,2.3952148E1,1.7910156E1,2.1287598E1,0E0,0E0,2.4551392E-1,5.316658E-1,3.672881E-1,3.3747292E0,2.7576447E-1,2.4234009E-1,2.651123E0,1.6162109E0,0E0,2.7167969E0,0E0,3.173828E-2,0E0,0E0,0E0,0E0,0E0,0E0,0E0,0E0,0E0,0E0,0E0,0E0,0E0,0E0,0E0,0E0,0E0,0E0,0E0,0E0,0E0,0E0],"parents":[2147483647,0,0,1,1,2,2,3,3,4,4,5,5,6,6,7,7,8,8,9,9,10,10,11,11,12,12,13,13,14,14,17,17,18,18,19,19,20,20,21,21,22,22,23,23,24,24,26,26,28,28],"right_children":[2,4,6,8,10,12,14,16,18,20,22,24,26,28,30,-1,-1,32,34,36,38,40,42,44,46,-1,48,-1,50,-1,-1,-1,-1,-1,-1,-1,-1,-1,-1,-1,-1,-1,-1,-1,-1,-1,-1,-1,-1,-1,-1],"split_conditions":[9.477894E-1,-3.5667494E-1,1.8687205E0,-9.9425226E-1,5.187938E-1,1.4951488E0,2.2679937E0,-1.2039728E0,-7.133499E-1,8.61777E-2,7.030975E-1,1.2753628E0,1.6826884E0,2.0425181E0,2.508786E0,-3.1347107E-2,-2.5753845E-2,-8.4397006E-1,-6.1618614E-1,-1.1500113E-2,3.6464313E-1,5.877867E-1,8.197798E-1,1.1474024E0,1.3737155E0,3.721436E-2,1.7715567E0,4.550189E-2,2.1435893E0,5.492293E-2,6.1817557E-2,-2.1406427E-2,-1.8013252E-2,-1.6031204E-2,-1.1796366E-2,-4.4228155E-3,-2.963994E-4,5.3712246E-3,1.0418221E-2,1.1816856E-2,1.4887721E-2,1.7674215E-2,1.9971514E-2,2.5192197E-2,2.8232167E-2,3.0739928E-2,3.3177663E-2,4.000643E-2,4.223259E-2,4.8481785E-2,5.1072177E-2],"split_indices":[5,0,5,5,1,5,5,1,0,0,5,5,5,5,5,0,0,5,5,7,5,5,5,5,5,0,5,0,5,0,0,0,0,0,0,0,0,0,0,0,0,0,0,0,0,0,0,0,0,0,0],"split_type":[0,0,0,0,0,0,0,0,0,0,0,0,0,0,0,0,0,0,0,0,0,0,0,0,0,0,0,0,0,0,0,0,0,0,0,0,0,0,0,0,0,0,0,0,0,0,0,0,0,0,0],"sum_hessian":[1.2198E4,1.478E3,1.072E4,4.8E2,9.98E2,6.517E3,4.203E3,1.93E2,2.87E2,4.71E2,5.27E2,2.284E3,4.233E3,2.912E3,1.291E3,9.8E1,9.5E1,1.81E2,1.06E2,4.6E1,4.25E2,1.48E2,3.79E2,9.87E2,1.297E3,1.658E3,2.575E3,1.383E3,1.529E3,7.64E2,5.27E2,9.4E1,8.7E1,5.4E1,5.2E1,2.3E1,2.3E1,3.32E2,9.3E1,5.8E1,9E1,2.33E2,1.46E2,3.81E2,6.06E2,5.75E2,7.22E2,1.436E3,1.139E3,9.13E2,6.16E2],"tree_param":{"num_deleted":"0","num_feature":"11","num_nodes":"51","size_leaf_vector":"1"}},{"base_weights":[1.5874575E0,3.1306338E-2,1.8019861E0,-9.5667696E-1,5.069707E-1,1.5582529E0,2.1869252E0,-1.2358583E0,-7.6529557E-1,2.4068698E-1,7.4500716E-1,1.2881933E0,1.7019336E0,2.0519435E0,2.4843442E0,-3.179663E-2,-2.5790764E-2,-8.583259E-1,-5.974668E-1,-1.0250007E-1,2.7700922E-1,5.996758E-1,7.9808295E-1,1.1646708E0,1.3812226E0,3.721436E-2,1.7655457E0,4.5704048E-2,4.966864E-2,5.491007E-2,6.1817557E-2,-2.1406427E-2,-1.8193984E-2,-1.5783032E-2,-1.1783787E-2,-7.311947E-3,-1.4616903E-3,5.3427527E-3,1.0291338E-2,1.198099E-2,1.4947707E-2,1.7366214E-2,1.9681374E-2,2.5192197E-2,2.8232167E-2,3.0739928E-2,3.3177663E-2,4.0019203E-2,4.228056E-2],"categories":[],"categories_nodes":[],"categories_segments":[],"categories_sizes":[],"default_left":[0,0,0,0,0,0,0,0,0,0,0,0,0,0,0,0,0,0,0,0,0,0,0,0,0,0,0,0,0,0,0,0,0,0,0,0,0,0,0,0,0,0,0,0,0,0,0,0,0],"id":29,"left_children":[1,3,5,7,9,11,13,15,17,19,21,23,25,27,29,-1,-1,31,33,35,37,39,41,43,45,-1,47,-1,-1,-1,-1,-1,-1,-1,-1,-1,-1,-1,-1,-1,-1,-1,-1,-1,-1,-1,-1,-1,-1],"loss_changes":[4.0724434E3,6.9553876E2,1.00246094E3,2.475409E1,6.3142548E1,2.5266211E2,1.6166797E2,1.7173767E0,3.9837494E0,5.92449E0,3.5864563E0,2.4648682E1,2.4893555E1,1.6598633E1,2.1392578E1,0E0,0E0,1.4408875E-1,4.3737411E-1,3.6672208E-1,3.2470894E0,1.966095E-1,3.1604004E-1,2.651123E0,1.6162109E0,0E0,3.0390625E0,0E0,0E0,0E0,0E0,0E0,0E0,0E0,0E0,0E0,0E0,0E0,0E0,0E0,0E0,0E0,0E0,0E0,0E0,0E0,0E0,0E0,0E0],"parents":[2147483647,0,0,1,1,2,2,3,3,4,4,5,5,6,6,7,7,8,8,9,9,10,10,11,11,12,12,13,13,14,14,17,17,18,18,19,19,20,20,21,21,22,22,23,23,24,24,26,26],"right_children":[2,4,6,8,10,12,14,16,18,20,22,24,26,28,30,-1,-1,32,34,36,38,40,42,44,46,-1,48,-1,-1,-1,-1,-1,-1,-1,-1,-1,-1,-1,-1,-1,-1,-1,-1,-1,-1,-1,-1,-1,-1],"split_conditions":[9.477894E-1,-3.5667494E-1,1.8764069E0,-9.9425226E-1,5.187938E-1,1.4951488E0,2.2679937E0,-1.2378744E0,-7.133499E-1,8.61777E-2,7.030975E-1,1.2753628E0,1.6826884E0,2.05027E0,2.508786E0,-3.179663E-2,-2.5790764E-2,-8.4397006E-1,-6.1618614E-1,-3.4249032E-1,3.6464313E-1,5.877867E-1,8.020016E-1,1.1474024E0,1.3737155E0,3.721436E-2,1.7715567E0,4.5704048E-2,4.966864E-2,5.491007E-2,6.1817557E-2,-2.1406427E-2,-1.8193984E-2,-1.5783032E-2,-1.1783787E-2,-7.311947E-3,-1.4616903E-3,5.3427527E-3,1.0291338E-2,1.198099E-2,1.4947707E-2,1.7366214E-2,1.9681374E-2,2.5192197E-2,2.8232167E-2,3.0739928E-2,3.3177663E-2,4.0019203E-2,4.228056E-2],"split_indices":[5,0,0,5,0,5,0,5,5,1,0,5,5,0,5,0,0,5,5,4,5,5,5,5,5,0,0,0,0,0,0,0,0,0,0,0,0,0,0,0,0,0,0,0,0,0,0,0,0],"split_type":[0,0,0,0,0,0,0,0,0,0,0,0,0,0,0,0,0,0,0,0,0,0,0,0,0,0,0,0,0,0,0,0,0,0,0,0,0,0,0,0,0,0,0,0,0,0,0,0,0],"sum_hessian":[1.2198E4,1.478E3,1.072E4,4.8E2,9.98E2,6.567E3,4.153E3,1.93E2,2.87E2,4.72E2,5.26E2,2.284E3,4.283E3,2.862E3,1.291E3,9E1,1.03E2,1.82E2,1.05E2,4.5E1,4.27E2,1.44E2,3.82E2,9.87E2,1.297E3,1.658E3,2.625E3,1.419E3,1.443E3,7.64E2,5.27E2,9.4E1,8.8E1,5.2E1,5.3E1,6E0,3.9E1,3.34E2,9.3E1,5.3E1,9.1E1,1.93E2,1.89E2,3.81E2,6.06E2,5.75E2,7.22E2,1.436E3,1.189E3],"tree_param":{"num_deleted":"0","num_feature":"11","num_nodes":"49","size_leaf_vector":"1"}},{"base_weights":[1.5874575E0,3.1306338E-2,1.8019861E0,-9.6092564E-1,5.046153E-1,1.555778E0,2.1832852E0,-1.2358583E0,-7.7040684E-1,2.3604578E-1,7.472067E-1,1.2881933E0,1.6998204E0,2.0488622E0,2.4846716E0,-3.179663E-2,-2.5790764E-2,-2.0530682E-2,-6.5887123E-1,-1.13350436E-1,2.7540326E-1,1.4038807E-2,7.9973495E-1,1.1646708E0,1.3812226E0,3.7120797E-2,1.7603539E0,4.550189E-2,4.9558092E-2,5.494497E-2,6.1785627E-2,-1.675748E-2,-1.2378885E-2,-7.2799684E-3,-1.4091771E-3,5.3427527E-3,1.0082166E-2,1.7436069E-2,1.9681374E-2,2.5208833E-2,2.8216742E-2,3.0739928E-2,3.3177663E-2,3.989139E-2,4.2166606E-2],"categories":[],"categories_nodes":[],"categories_segments":[],"categories_sizes":[],"default_left":[0,0,0,0,0,0,0,0,0,0,0,0,0,0,0,0,0,0,0,0,0,0,0,0,0,0,0,0,0,0,0,0,0,0,0,0,0,0,0,0,0,0,0,0,0],"id":30,"left_children":[1,3,5,7,9,11,13,15,17,19,21,23,25,27,29,-1,-1,-1,31,33,35,-1,37,39,41,-1,43,-1,-1,-1,-1,-1,-1,-1,-1,-1,-1,-1,-1,-1,-1,-1,-1,-1,-1],"loss_changes":[4.0724434E3,6.950711E2,1.0030781E3,2.408548E1,6.51066E1,2.4903711E2,1.6522656E2,1.7173767E0,2.991684E0,6.590618E0,3.4831543E0,2.4648682E1,2.3749023E1,1.7910156E1,2.0859863E1,0E0,0E0,0E0,7.645111E-1,4.9723262E-1,2.9981995E0,0E0,2.5457764E-1,2.5632324E0,1.6162109E0,0E0,3.2216797E0,0E0,0E0,0E0,0E0,0E0,0E0,0E0,0E0,0E0,0E0,0E0,0E0,0E0,0E0,0E0,0E0,0E0,0E0],"parents":[2147483647,0,0,1,1,2,2,3,3,4,4,5,5,6,6,7,7,8,8,9,9,10,10,11,11,12,12,13,13,14,14,18,18,19,19,20,20,22,22,23,23,24,24,26,26],"right_children":[2,4,6,8,10,12,14,16,18,20,22,24,26,28,30,-1,-1,-1,32,34,36,-1,38,40,42,-1,44,-1,-1,-1,-1,-1,-1,-1,-1,-1,-1,-1,-1,-1,-1,-1,-1,-1,-1],"split_conditions":[9.477894E-1,-3.7106368E-1,1.8687205E0,-9.9425226E-1,5.187938E-1,1.4951488E0,2.2679937E0,-1.2378744E0,-7.765288E-1,8.61777E-2,7.030975E-1,1.2753628E0,1.6770966E0,2.0425181E0,2.508786E0,-3.179663E-2,-2.5790764E-2,-2.0530682E-2,-6.1618614E-1,-3.4249032E-1,3.6464313E-1,1.4038807E-2,8.020016E-1,1.1474024E0,1.3737155E0,3.7120797E-2,1.7664417E0,4.550189E-2,4.9558092E-2,5.494497E-2,6.1785627E-2,-1.675748E-2,-1.2378885E-2,-7.2799684E-3,-1.4091771E-3,5.3427527E-3,1.0082166E-2,1.7436069E-2,1.9681374E-2,2.5208833E-2,2.8216742E-2,3.0739928E-2,3.3177663E-2,3.989139E-2,4.2166606E-2],"split_indices":[5,5,5,5,5,5,5,5,1,1,5,5,0,5,1,0,0,0,0,4,5,0,5,0,5,0,5,0,0,0,0,0,0,0,0,0,0,0,0,0,0,0,0,0,0],"split_type":[0,0,0,0,0,0,0,0,0,0,0,0,0,0,0,0,0,0,0,0,0,0,0,0,0,0,0,0,0,0,0,0,0,0,0,0,0,0,0,0,0,0,0,0,0],"sum_hessian":[1.2198E4,1.478E3,1.072E4,4.77E2,1.001E3,6.517E3,4.203E3,1.93E2,2.84E2,4.76E2,5.25E2,2.284E3,4.233E3,2.912E3,1.291E3,9E1,1.03E2,1.38E2,1.46E2,4.8E1,4.28E2,1.44E2,3.81E2,9.87E2,1.297E3,1.571E3,2.662E3,1.383E3,1.529E3,7.64E2,5.27E2,9.5E1,5.1E1,9E0,3.9E1,3.34E2,9.4E1,1.92E2,1.89E2,3.8E2,6.07E2,5.75E2,7.22E2,1.455E3,1.207E3],"tree_param":{"num_deleted":"0","num_feature":"11","num_nodes":"45","size_leaf_vector":"1"}},{"base_weights":[1.5874575E0,3.1306338E-2,1.8019861E0,-9.5667696E-1,5.069707E-1,1.555778E0,2.1832852E0,-1.2358583E0,-7.6529557E-1,2.3931013E-1,7.472067E-1,1.2881933E0,1.6998204E0,2.0488622E0,2.4846716E0,-3.1421654E-2,-2.5616499E-2,-8.583259E-1,-5.974668E-1,-1.0137814E-1,2.770472E-1,1.4038807E-2,7.9973495E-1,1.1649795E0,1.3809876E0,3.721436E-2,1.763307E0,4.550189E-2,2.130998E0,5.492293E-2,6.1817557E-2,-2.1406427E-2,-1.8193984E-2,-1.5783032E-2,-1.1783787E-2,-3.6133064E-3,1.3009793E-3,5.385397E-3,1.0082166E-2,1.7436069E-2,1.9681374E-2,2.5208833E-2,2.8228404E-2,3.0741885E-2,3.3166293E-2,4.000643E-2,4.223259E-2,4.8481785E-2,5.1072177E-2],"categories":[],"categories_nodes":[],"categories_segments":[],"categories_sizes":[],"default_left":[0,0,0,0,0,0,0,0,0,0,0,0,0,0,0,0,0,0,0,0,0,0,0,0,0,0,0,0,0,0,0,0,0,0,0,0,0,0,0,0,0,0,0,0,0,0,0,0,0],"id":31,"left_children":[1,3,5,7,9,11,13,15,17,19,21,23,25,27,29,-1,-1,31,33,35,37,-1,39,41,43,-1,45,-1,47,-1,-1,-1,-1,-1,-1,-1,-1,-1,-1,-1,-1,-1,-1,-1,-1,-1,-1,-1,-1],"loss_changes":[4.0724434E3,6.9553876E2,1.0030781E3,2.475409E1,6.405859E1,2.4903711E2,1.6522656E2,1.5161438E0,3.9837494E0,6.1221027E0,3.4831543E0,2.4516846E1,2.3952148E1,1.7910156E1,2.1287598E1,0E0,0E0,1.4408875E-1,4.3737411E-1,4.1642082E-1,2.9382286E0,0E0,2.5457764E-1,2.5928955E0,1.5786133E0,0E0,2.7167969E0,0E0,3.173828E-2,0E0,0E0,0E0,0E0,0E0,0E0,0E0,0E0,0E0,0E0,0E0,0E0,0E0,0E0,0E0,0E0,0E0,0E0,0E0,0E0],"parents":[2147483647,0,0,1,1,2,2,3,3,4,4,5,5,6,6,7,7,8,8,9,9,10,10,11,11,12,12,13,13,14,14,17,17,18,18,19,19,20,20,22,22,23,23,24,24,26,26,28,28],"right_children":[2,4,6,8,10,12,14,16,18,20,22,24,26,28,30,-1,-1,32,34,36,38,-1,40,42,44,-1,46,-1,48,-1,-1,-1,-1,-1,-1,-1,-1,-1,-1,-1,-1,-1,-1,-1,-1,-1,-1,-1,-1],"split_conditions":[9.477894E-1,-3.5667494E-1,1.8687205E0,-9.9425226E-1,5.187938E-1,1.4951488E0,2.2679937E0,-1.2039728E0,-7.133499E-1,8.61777E-2,7.030975E-1,1.2753628E0,1.6826884E0,2.0425181E0,2.508786E0,-3.1421654E-2,-2.5616499E-2,-8.4397006E-1,-6.1618614E-1,8.61777E-2,3.6464313E-1,1.4038807E-2,8.020016E-1,1.1474024E0,1.3737155E0,3.721436E-2,1.7715567E0,4.550189E-2,2.1435893E0,5.492293E-2,6.1817557E-2,-2.1406427E-2,-1.8193984E-2,-1.5783032E-2,-1.1783787E-2,-3.6133064E-3,1.3009793E-3,5.385397E-3,1.0082166E-2,1.7436069E-2,1.9681374E-2,2.5208833E-2,2.8228404E-2,3.0741885E-2,3.3166293E-2,4.000643E-2,4.223259E-2,4.8481785E-2,5.1072177E-2],"split_indices":[5,0,5,5,5,5,5,0,5,5,5,0,5,5,5,0,0,5,5,2,5,0,5,0,0,0,5,0,5,0,0,0,0,0,0,0,0,0,0,0,0,0,0,0,0,0,0,0,0],"split_type":[0,0,0,0,0,0,0,0,0,0,0,0,0,0,0,0,0,0,0,0,0,0,0,0,0,0,0,0,0,0,0,0,0,0,0,0,0,0,0,0,0,0,0,0,0,0,0,0,0],"sum_hessian":[1.2198E4,1.478E3,1.072E4,4.8E2,9.98E2,6.517E3,4.203E3,1.93E2,2.87E2,4.73E2,5.25E2,2.284E3,4.233E3,2.912E3,1.291E3,9.9E1,9.4E1,1.82E2,1.05E2,4.7E1,4.26E2,1.44E2,3.81E2,9.87E2,1.297E3,1.658E3,2.575E3,1.383E3,1.529E3,7.64E2,5.27E2,9.4E1,8.8E1,5.2E1,5.3E1,3.5E1,1.2E1,3.32E2,9.4E1,1.92E2,1.89E2,3.8E2,6.07E2,5.75E2,7.22E2,1.436E3,1.139E3,9.13E2,6.16E2],"tree_param":{"num_deleted":"0","num_feature":"11","num_nodes":"49","size_leaf_vector":"1"}},{"base_weights":[1.5874575E0,3.268314E-2,1.8021262E0,-9.5667696E-1,5.080573E-1,1.555933E0,2.1832852E0,-1.2358583E0,-7.6529557E-1,2.3931013E-1,7.4835676E-1,1.2884012E0,1.6998204E0,2.0488622E0,2.4846716E0,-3.179663E-2,-2.5790764E-2,-8.583259E-1,-5.974668E-1,-1.0137814E-1,2.770472E-1,6.036687E-1,8.0104274E-1,1.1649019E0,1.3812226E0,3.7120797E-2,1.7603539E0,4.550189E-2,4.9558092E-2,5.492293E-2,6.1817557E-2,-2.1406427E-2,-1.8193984E-2,-1.5783032E-2,-1.1783787E-2,-3.6133064E-3,1.3009793E-3,5.385397E-3,1.0082166E-2,1.2270229E-2,1.486782E-2,1.7664446E-2,2.0031465E-2,2.5212903E-2,2.8216742E-2,3.0739928E-2,3.3177663E-2,3.989139E-2,4.2166606E-2],"categories":[],"categories_nodes":[],"categories_segments":[],"categories_sizes":[],"default_left":[0,0,0,0,0,0,0,0,0,0,0,0,0,0,0,0,0,0,0,0,0,0,0,0,0,0,0,0,0,0,0,0,0,0,0,0,0,0,0,0,0,0,0,0,0,0,0,0,0],"id":32,"left_children":[1,3,5,7,9,11,13,15,17,19,21,23,25,27,29,-1,-1,31,33,35,37,39,41,43,45,-1,47,-1,-1,-1,-1,-1,-1,-1,-1,-1,-1,-1,-1,-1,-1,-1,-1,-1,-1,-1,-1,-1,-1],"loss_changes":[4.071498E3,6.970245E2,1.00246094E3,2.475409E1,6.446527E1,2.4863965E2,1.6522656E2,1.7173767E0,3.9837494E0,6.1221027E0,3.5414124E0,2.4561768E1,2.3749023E1,1.7910156E1,2.1287598E1,0E0,0E0,1.4408875E-1,4.3737411E-1,4.1642082E-1,2.9382286E0,5.577469E-2,3.0618286E-1,2.5395508E0,1.6162109E0,0E0,3.2216797E0,0E0,0E0,0E0,0E0,0E0,0E0,0E0,0E0,0E0,0E0,0E0,0E0,0E0,0E0,0E0,0E0,0E0,0E0,0E0,0E0,0E0,0E0],"parents":[2147483647,0,0,1,1,2,2,3,3,4,4,5,5,6,6,7,7,8,8,9,9,10,10,11,11,12,12,13,13,14,14,17,17,18,18,19,19,20,20,21,21,22,22,23,23,24,24,26,26],"right_children":[2,4,6,8,10,12,14,16,18,20,22,24,26,28,30,-1,-1,32,34,36,38,40,42,44,46,-1,48,-1,-1,-1,-1,-1,-1,-1,-1,-1,-1,-1,-1,-1,-1,-1,-1,-1,-1,-1,-1,-1,-1],"split_conditions":[9.516579E-1,-3.5667494E-1,1.8687205E0,-9.9425226E-1,5.187938E-1,1.4951488E0,2.2679937E0,-1.2378744E0,-7.133499E-1,8.61777E-2,7.030975E-1,1.2753628E0,1.6770966E0,2.0425181E0,2.508786E0,-3.179663E-2,-2.5790764E-2,-8.4397006E-1,-6.1618614E-1,8.61777E-2,3.6464313E-1,5.877867E-1,8.197798E-1,1.1474024E0,1.3737155E0,3.7120797E-2,1.7664417E0,4.550189E-2,4.9558092E-2,5.492293E-2,6.1817557E-2,-2.1406427E-2,-1.8193984E-2,-1.5783032E-2,-1.1783787E-2,-3.6133064E-3,1.3009793E-3,5.385397E-3,